digraph Tree {
node [shape=box, style="filled, rounded", color="black", fontname="helvetica"] ;
edge [fontname="helvetica"] ;
0 [label=<non_mtg_acc_past_due_12_months_num &le; 1.5<br/>gini = 0.141<br/>samples = 12681<br/>value = [18469.0, 1531.0]<br/>class = No Default>, fillcolor="#e78b49"] ;
1 [label=<uti_50plus_pct &le; 0.628<br/>gini = 0.11<br/>samples = 12306<br/>value = [18306, 1138]<br/>class = No Default>, fillcolor="#e78945"] ;
0 -> 1 [labeldistance=2.5, labelangle=45, headlabel="True"] ;
2 [label=<tot_credit_debt &le; 48847.17<br/>gini = 0.09<br/>samples = 10490<br/>value = [15824, 789]<br/>class = No Default>, fillcolor="#e68743"] ;
1 -> 2 ;
3 [label=<uti_50plus_pct &le; 0.26<br/>gini = 0.296<br/>samples = 266<br/>value = [335, 74]<br/>class = No Default>, fillcolor="#eb9d65"] ;
2 -> 3 ;
4 [label=<rep_income &le; 62000.0<br/>gini = 0.444<br/>samples = 4<br/>value = [3, 6]<br/>class = Default>, fillcolor="#9ccef2"] ;
3 -> 4 ;
5 [label=<gini = 0.0<br/>samples = 1<br/>value = [3, 0]<br/>class = No Default>, fillcolor="#e58139"] ;
4 -> 5 ;
6 [label=<gini = 0.0<br/>samples = 3<br/>value = [0, 6]<br/>class = Default>, fillcolor="#399de5"] ;
4 -> 6 ;
7 [label=<card_age &le; 252.0<br/>gini = 0.282<br/>samples = 262<br/>value = [332, 68]<br/>class = No Default>, fillcolor="#ea9b62"] ;
3 -> 7 ;
8 [label=<rep_income &le; 96500.0<br/>gini = 0.422<br/>samples = 95<br/>value = [104, 45]<br/>class = No Default>, fillcolor="#f0b88f"] ;
7 -> 8 ;
9 [label=<rep_income &le; 77500.0<br/>gini = 0.387<br/>samples = 90<br/>value = [101, 36]<br/>class = No Default>, fillcolor="#eeae80"] ;
8 -> 9 ;
10 [label=<card_age &le; 197.5<br/>gini = 0.463<br/>samples = 56<br/>value = [54, 31]<br/>class = No Default>, fillcolor="#f4c9ab"] ;
9 -> 10 ;
11 [label=<credit_age &le; 140.0<br/>gini = 0.172<br/>samples = 15<br/>value = [19, 2]<br/>class = No Default>, fillcolor="#e88e4e"] ;
10 -> 11 ;
12 [label=<gini = 0.0<br/>samples = 1<br/>value = [0, 1]<br/>class = Default>, fillcolor="#399de5"] ;
11 -> 12 ;
13 [label=<card_open_36_month_num &le; 0.5<br/>gini = 0.095<br/>samples = 14<br/>value = [19, 1]<br/>class = No Default>, fillcolor="#e68843"] ;
11 -> 13 ;
14 [label=<gini = 0.0<br/>samples = 11<br/>value = [17, 0]<br/>class = No Default>, fillcolor="#e58139"] ;
13 -> 14 ;
15 [label=<avg_card_debt &le; 7635.585<br/>gini = 0.444<br/>samples = 3<br/>value = [2, 1]<br/>class = No Default>, fillcolor="#f2c09c"] ;
13 -> 15 ;
16 [label=<gini = 0.0<br/>samples = 1<br/>value = [0, 1]<br/>class = Default>, fillcolor="#399de5"] ;
15 -> 16 ;
17 [label=<gini = 0.0<br/>samples = 2<br/>value = [2, 0]<br/>class = No Default>, fillcolor="#e58139"] ;
15 -> 17 ;
18 [label=<avg_card_debt &le; 6550.365<br/>gini = 0.496<br/>samples = 41<br/>value = [35, 29]<br/>class = No Default>, fillcolor="#fbe9dd"] ;
10 -> 18 ;
19 [label=<uti_card &le; 0.401<br/>gini = 0.1<br/>samples = 12<br/>value = [1, 18]<br/>class = Default>, fillcolor="#44a2e6"] ;
18 -> 19 ;
20 [label=<uti_card &le; 0.37<br/>gini = 0.375<br/>samples = 3<br/>value = [1, 3]<br/>class = Default>, fillcolor="#7bbeee"] ;
19 -> 20 ;
21 [label=<gini = 0.0<br/>samples = 2<br/>value = [0, 3]<br/>class = Default>, fillcolor="#399de5"] ;
20 -> 21 ;
22 [label=<gini = 0.0<br/>samples = 1<br/>value = [1, 0]<br/>class = No Default>, fillcolor="#e58139"] ;
20 -> 22 ;
23 [label=<gini = 0.0<br/>samples = 9<br/>value = [0, 15]<br/>class = Default>, fillcolor="#399de5"] ;
19 -> 23 ;
24 [label=<uti_max_credit_line &le; 0.498<br/>gini = 0.369<br/>samples = 29<br/>value = [34, 11]<br/>class = No Default>, fillcolor="#edaa79"] ;
18 -> 24 ;
25 [label=<gini = 0.0<br/>samples = 12<br/>value = [17, 0]<br/>class = No Default>, fillcolor="#e58139"] ;
24 -> 25 ;
26 [label=<credit_age &le; 240.0<br/>gini = 0.477<br/>samples = 17<br/>value = [17, 11]<br/>class = No Default>, fillcolor="#f6d3b9"] ;
24 -> 26 ;
27 [label=<uti_max_credit_line &le; 0.569<br/>gini = 0.245<br/>samples = 4<br/>value = [1, 6]<br/>class = Default>, fillcolor="#5aade9"] ;
26 -> 27 ;
28 [label=<gini = 0.0<br/>samples = 3<br/>value = [0, 6]<br/>class = Default>, fillcolor="#399de5"] ;
27 -> 28 ;
29 [label=<gini = 0.0<br/>samples = 1<br/>value = [1, 0]<br/>class = No Default>, fillcolor="#e58139"] ;
27 -> 29 ;
30 [label=<card_inq_24_month_num &le; 3.0<br/>gini = 0.363<br/>samples = 13<br/>value = [16, 5]<br/>class = No Default>, fillcolor="#eda877"] ;
26 -> 30 ;
31 [label=<gini = 0.0<br/>samples = 6<br/>value = [10, 0]<br/>class = No Default>, fillcolor="#e58139"] ;
30 -> 31 ;
32 [label=<uti_card &le; 0.57<br/>gini = 0.496<br/>samples = 7<br/>value = [6, 5]<br/>class = No Default>, fillcolor="#fbeade"] ;
30 -> 32 ;
33 [label=<gini = 0.0<br/>samples = 3<br/>value = [5, 0]<br/>class = No Default>, fillcolor="#e58139"] ;
32 -> 33 ;
34 [label=<avg_card_debt &le; 9936.725<br/>gini = 0.278<br/>samples = 4<br/>value = [1, 5]<br/>class = Default>, fillcolor="#61b1ea"] ;
32 -> 34 ;
35 [label=<gini = 0.0<br/>samples = 3<br/>value = [0, 5]<br/>class = Default>, fillcolor="#399de5"] ;
34 -> 35 ;
36 [label=<gini = 0.0<br/>samples = 1<br/>value = [1, 0]<br/>class = No Default>, fillcolor="#e58139"] ;
34 -> 36 ;
37 [label=<credit_age &le; 161.5<br/>gini = 0.174<br/>samples = 34<br/>value = [47, 5]<br/>class = No Default>, fillcolor="#e88e4e"] ;
9 -> 37 ;
38 [label=<gini = 0.0<br/>samples = 1<br/>value = [0, 2]<br/>class = Default>, fillcolor="#399de5"] ;
37 -> 38 ;
39 [label=<card_age &le; 158.5<br/>gini = 0.113<br/>samples = 33<br/>value = [47, 3]<br/>class = No Default>, fillcolor="#e78946"] ;
37 -> 39 ;
40 [label=<inq_12_month_num &le; 1.0<br/>gini = 0.5<br/>samples = 2<br/>value = [1, 1]<br/>class = No Default>, fillcolor="#ffffff"] ;
39 -> 40 ;
41 [label=<gini = 0.0<br/>samples = 1<br/>value = [1, 0]<br/>class = No Default>, fillcolor="#e58139"] ;
40 -> 41 ;
42 [label=<gini = 0.0<br/>samples = 1<br/>value = [0, 1]<br/>class = Default>, fillcolor="#399de5"] ;
40 -> 42 ;
43 [label=<States_SC &le; 0.5<br/>gini = 0.08<br/>samples = 31<br/>value = [46, 2]<br/>class = No Default>, fillcolor="#e68642"] ;
39 -> 43 ;
44 [label=<gini = 0.0<br/>samples = 25<br/>value = [37, 0]<br/>class = No Default>, fillcolor="#e58139"] ;
43 -> 44 ;
45 [label=<avg_card_debt &le; 8562.42<br/>gini = 0.298<br/>samples = 6<br/>value = [9, 2]<br/>class = No Default>, fillcolor="#eb9d65"] ;
43 -> 45 ;
46 [label=<gini = 0.0<br/>samples = 4<br/>value = [9, 0]<br/>class = No Default>, fillcolor="#e58139"] ;
45 -> 46 ;
47 [label=<gini = 0.0<br/>samples = 2<br/>value = [0, 2]<br/>class = Default>, fillcolor="#399de5"] ;
45 -> 47 ;
48 [label=<States_SC &le; 0.5<br/>gini = 0.375<br/>samples = 5<br/>value = [3, 9]<br/>class = Default>, fillcolor="#7bbeee"] ;
8 -> 48 ;
49 [label=<auto_open_ 36_month_num &le; 0.5<br/>gini = 0.18<br/>samples = 4<br/>value = [1, 9]<br/>class = Default>, fillcolor="#4fa8e8"] ;
48 -> 49 ;
50 [label=<gini = 0.0<br/>samples = 2<br/>value = [0, 6]<br/>class = Default>, fillcolor="#399de5"] ;
49 -> 50 ;
51 [label=<States_LA &le; 0.5<br/>gini = 0.375<br/>samples = 2<br/>value = [1, 3]<br/>class = Default>, fillcolor="#7bbeee"] ;
49 -> 51 ;
52 [label=<gini = 0.0<br/>samples = 1<br/>value = [1, 0]<br/>class = No Default>, fillcolor="#e58139"] ;
51 -> 52 ;
53 [label=<gini = 0.0<br/>samples = 1<br/>value = [0, 3]<br/>class = Default>, fillcolor="#399de5"] ;
51 -> 53 ;
54 [label=<gini = 0.0<br/>samples = 1<br/>value = [2, 0]<br/>class = No Default>, fillcolor="#e58139"] ;
48 -> 54 ;
55 [label=<avg_card_debt &le; 6912.755<br/>gini = 0.166<br/>samples = 167<br/>value = [228, 23]<br/>class = No Default>, fillcolor="#e88e4d"] ;
7 -> 55 ;
56 [label=<card_inq_24_month_num &le; 7.5<br/>gini = 0.499<br/>samples = 29<br/>value = [22, 20]<br/>class = No Default>, fillcolor="#fdf4ed"] ;
55 -> 56 ;
57 [label=<States_LA &le; 0.5<br/>gini = 0.48<br/>samples = 24<br/>value = [21, 14]<br/>class = No Default>, fillcolor="#f6d5bd"] ;
56 -> 57 ;
58 [label=<tot_credit_debt &le; 27124.08<br/>gini = 0.497<br/>samples = 19<br/>value = [12, 14]<br/>class = Default>, fillcolor="#e3f1fb"] ;
57 -> 58 ;
59 [label=<gini = 0.0<br/>samples = 6<br/>value = [0, 9]<br/>class = Default>, fillcolor="#399de5"] ;
58 -> 59 ;
60 [label=<avg_card_debt &le; 6812.1<br/>gini = 0.415<br/>samples = 13<br/>value = [12, 5]<br/>class = No Default>, fillcolor="#f0b58b"] ;
58 -> 60 ;
61 [label=<avg_card_debt &le; 5513.82<br/>gini = 0.142<br/>samples = 11<br/>value = [12, 1]<br/>class = No Default>, fillcolor="#e78c49"] ;
60 -> 61 ;
62 [label=<card_age &le; 299.5<br/>gini = 0.5<br/>samples = 2<br/>value = [1, 1]<br/>class = No Default>, fillcolor="#ffffff"] ;
61 -> 62 ;
63 [label=<gini = 0.0<br/>samples = 1<br/>value = [0, 1]<br/>class = Default>, fillcolor="#399de5"] ;
62 -> 63 ;
64 [label=<gini = 0.0<br/>samples = 1<br/>value = [1, 0]<br/>class = No Default>, fillcolor="#e58139"] ;
62 -> 64 ;
65 [label=<gini = 0.0<br/>samples = 9<br/>value = [11, 0]<br/>class = No Default>, fillcolor="#e58139"] ;
61 -> 65 ;
66 [label=<gini = 0.0<br/>samples = 2<br/>value = [0, 4]<br/>class = Default>, fillcolor="#399de5"] ;
60 -> 66 ;
67 [label=<gini = 0.0<br/>samples = 5<br/>value = [9, 0]<br/>class = No Default>, fillcolor="#e58139"] ;
57 -> 67 ;
68 [label=<uti_card_50plus_pct &le; 0.462<br/>gini = 0.245<br/>samples = 5<br/>value = [1, 6]<br/>class = Default>, fillcolor="#5aade9"] ;
56 -> 68 ;
69 [label=<gini = 0.0<br/>samples = 1<br/>value = [1, 0]<br/>class = No Default>, fillcolor="#e58139"] ;
68 -> 69 ;
70 [label=<gini = 0.0<br/>samples = 4<br/>value = [0, 6]<br/>class = Default>, fillcolor="#399de5"] ;
68 -> 70 ;
71 [label=<uti_card_50plus_pct &le; 0.675<br/>gini = 0.028<br/>samples = 138<br/>value = [206, 3]<br/>class = No Default>, fillcolor="#e5833c"] ;
55 -> 71 ;
72 [label=<uti_50plus_pct &le; 0.304<br/>gini = 0.019<br/>samples = 135<br/>value = [204.0, 2.0]<br/>class = No Default>, fillcolor="#e5823b"] ;
71 -> 72 ;
73 [label=<card_inq_24_month_num &le; 4.0<br/>gini = 0.245<br/>samples = 4<br/>value = [6, 1]<br/>class = No Default>, fillcolor="#e9965a"] ;
72 -> 73 ;
74 [label=<gini = 0.0<br/>samples = 3<br/>value = [6, 0]<br/>class = No Default>, fillcolor="#e58139"] ;
73 -> 74 ;
75 [label=<gini = 0.0<br/>samples = 1<br/>value = [0, 1]<br/>class = Default>, fillcolor="#399de5"] ;
73 -> 75 ;
76 [label=<ind_acc_XYZ &le; 0.5<br/>gini = 0.01<br/>samples = 131<br/>value = [198, 1]<br/>class = No Default>, fillcolor="#e5823a"] ;
72 -> 76 ;
77 [label=<gini = 0.0<br/>samples = 101<br/>value = [154, 0]<br/>class = No Default>, fillcolor="#e58139"] ;
76 -> 77 ;
78 [label=<credit_good_age &le; 130.5<br/>gini = 0.043<br/>samples = 30<br/>value = [44, 1]<br/>class = No Default>, fillcolor="#e6843d"] ;
76 -> 78 ;
79 [label=<uti_50plus_pct &le; 0.493<br/>gini = 0.375<br/>samples = 3<br/>value = [3, 1]<br/>class = No Default>, fillcolor="#eeab7b"] ;
78 -> 79 ;
80 [label=<gini = 0.0<br/>samples = 1<br/>value = [0, 1]<br/>class = Default>, fillcolor="#399de5"] ;
79 -> 80 ;
81 [label=<gini = 0.0<br/>samples = 2<br/>value = [3, 0]<br/>class = No Default>, fillcolor="#e58139"] ;
79 -> 81 ;
82 [label=<gini = 0.0<br/>samples = 27<br/>value = [41, 0]<br/>class = No Default>, fillcolor="#e58139"] ;
78 -> 82 ;
83 [label=<avg_card_debt &le; 8425.805<br/>gini = 0.444<br/>samples = 3<br/>value = [2, 1]<br/>class = No Default>, fillcolor="#f2c09c"] ;
71 -> 83 ;
84 [label=<gini = 0.0<br/>samples = 1<br/>value = [0, 1]<br/>class = Default>, fillcolor="#399de5"] ;
83 -> 84 ;
85 [label=<gini = 0.0<br/>samples = 2<br/>value = [2, 0]<br/>class = No Default>, fillcolor="#e58139"] ;
83 -> 85 ;
86 [label=<uti_card &le; 0.562<br/>gini = 0.084<br/>samples = 10224<br/>value = [15489, 715]<br/>class = No Default>, fillcolor="#e68742"] ;
2 -> 86 ;
87 [label=<tot_credit_debt &le; 135431.539<br/>gini = 0.062<br/>samples = 8108<br/>value = [12397, 411]<br/>class = No Default>, fillcolor="#e68540"] ;
86 -> 87 ;
88 [label=<uti_card &le; 0.447<br/>gini = 0.056<br/>samples = 7764<br/>value = [11914, 351]<br/>class = No Default>, fillcolor="#e6853f"] ;
87 -> 88 ;
89 [label=<non_mtg_acc_past_due_6_months_num &le; 0.5<br/>gini = 0.028<br/>samples = 3507<br/>value = [5465, 79]<br/>class = No Default>, fillcolor="#e5833c"] ;
88 -> 89 ;
90 [label=<uti_50plus_pct &le; 0.379<br/>gini = 0.027<br/>samples = 3493<br/>value = [5446, 76]<br/>class = No Default>, fillcolor="#e5833c"] ;
89 -> 90 ;
91 [label=<uti_card &le; 0.408<br/>gini = 0.014<br/>samples = 1251<br/>value = [1965, 14]<br/>class = No Default>, fillcolor="#e5823a"] ;
90 -> 91 ;
92 [label=<States_FL &le; 0.5<br/>gini = 0.005<br/>samples = 1011<br/>value = [1596, 4]<br/>class = No Default>, fillcolor="#e58139"] ;
91 -> 92 ;
93 [label=<avg_card_debt &le; 19780.235<br/>gini = 0.006<br/>samples = 874<br/>value = [1383, 4]<br/>class = No Default>, fillcolor="#e5813a"] ;
92 -> 93 ;
94 [label=<non_mtg_acc_past_due_12_months_num &le; 0.5<br/>gini = 0.003<br/>samples = 869<br/>value = [1377, 2]<br/>class = No Default>, fillcolor="#e58139"] ;
93 -> 94 ;
95 [label=<avg_card_debt &le; 6875.75<br/>gini = 0.002<br/>samples = 830<br/>value = [1319, 1]<br/>class = No Default>, fillcolor="#e58139"] ;
94 -> 95 ;
96 [label=<credit_good_age &le; 147.5<br/>gini = 0.278<br/>samples = 4<br/>value = [5, 1]<br/>class = No Default>, fillcolor="#ea9a61"] ;
95 -> 96 ;
97 [label=<gini = 0.0<br/>samples = 1<br/>value = [0, 1]<br/>class = Default>, fillcolor="#399de5"] ;
96 -> 97 ;
98 [label=<gini = 0.0<br/>samples = 3<br/>value = [5, 0]<br/>class = No Default>, fillcolor="#e58139"] ;
96 -> 98 ;
99 [label=<gini = 0.0<br/>samples = 826<br/>value = [1314, 0]<br/>class = No Default>, fillcolor="#e58139"] ;
95 -> 99 ;
100 [label=<card_age &le; 291.0<br/>gini = 0.033<br/>samples = 39<br/>value = [58, 1]<br/>class = No Default>, fillcolor="#e5833c"] ;
94 -> 100 ;
101 [label=<gini = 0.0<br/>samples = 25<br/>value = [37, 0]<br/>class = No Default>, fillcolor="#e58139"] ;
100 -> 101 ;
102 [label=<uti_max_credit_line &le; 0.286<br/>gini = 0.087<br/>samples = 14<br/>value = [21, 1]<br/>class = No Default>, fillcolor="#e68742"] ;
100 -> 102 ;
103 [label=<card_age &le; 302.0<br/>gini = 0.444<br/>samples = 2<br/>value = [2, 1]<br/>class = No Default>, fillcolor="#f2c09c"] ;
102 -> 103 ;
104 [label=<gini = 0.0<br/>samples = 1<br/>value = [0, 1]<br/>class = Default>, fillcolor="#399de5"] ;
103 -> 104 ;
105 [label=<gini = 0.0<br/>samples = 1<br/>value = [2, 0]<br/>class = No Default>, fillcolor="#e58139"] ;
103 -> 105 ;
106 [label=<gini = 0.0<br/>samples = 12<br/>value = [19, 0]<br/>class = No Default>, fillcolor="#e58139"] ;
102 -> 106 ;
107 [label=<uti_50plus_pct &le; 0.302<br/>gini = 0.375<br/>samples = 5<br/>value = [6, 2]<br/>class = No Default>, fillcolor="#eeab7b"] ;
93 -> 107 ;
108 [label=<gini = 0.0<br/>samples = 2<br/>value = [0, 2]<br/>class = Default>, fillcolor="#399de5"] ;
107 -> 108 ;
109 [label=<gini = 0.0<br/>samples = 3<br/>value = [6, 0]<br/>class = No Default>, fillcolor="#e58139"] ;
107 -> 109 ;
110 [label=<gini = 0.0<br/>samples = 137<br/>value = [213, 0]<br/>class = No Default>, fillcolor="#e58139"] ;
92 -> 110 ;
111 [label=<inq_12_month_num &le; 3.5<br/>gini = 0.051<br/>samples = 240<br/>value = [369, 10]<br/>class = No Default>, fillcolor="#e6843e"] ;
91 -> 111 ;
112 [label=<uti_card_50plus_pct &le; 0.499<br/>gini = 0.032<br/>samples = 192<br/>value = [300, 5]<br/>class = No Default>, fillcolor="#e5833c"] ;
111 -> 112 ;
113 [label=<rep_income &le; 41000.0<br/>gini = 0.022<br/>samples = 169<br/>value = [266, 3]<br/>class = No Default>, fillcolor="#e5823b"] ;
112 -> 113 ;
114 [label=<uti_card &le; 0.414<br/>gini = 0.5<br/>samples = 2<br/>value = [2, 2]<br/>class = No Default>, fillcolor="#ffffff"] ;
113 -> 114 ;
115 [label=<gini = 0.0<br/>samples = 1<br/>value = [0, 2]<br/>class = Default>, fillcolor="#399de5"] ;
114 -> 115 ;
116 [label=<gini = 0.0<br/>samples = 1<br/>value = [2, 0]<br/>class = No Default>, fillcolor="#e58139"] ;
114 -> 116 ;
117 [label=<uti_50plus_pct &le; 0.366<br/>gini = 0.008<br/>samples = 167<br/>value = [264, 1]<br/>class = No Default>, fillcolor="#e5813a"] ;
113 -> 117 ;
118 [label=<gini = 0.0<br/>samples = 124<br/>value = [193, 0]<br/>class = No Default>, fillcolor="#e58139"] ;
117 -> 118 ;
119 [label=<rep_income &le; 69500.0<br/>gini = 0.027<br/>samples = 43<br/>value = [71, 1]<br/>class = No Default>, fillcolor="#e5833c"] ;
117 -> 119 ;
120 [label=<uti_max_credit_line &le; 0.3<br/>gini = 0.105<br/>samples = 13<br/>value = [17, 1]<br/>class = No Default>, fillcolor="#e78845"] ;
119 -> 120 ;
121 [label=<gini = 0.0<br/>samples = 1<br/>value = [0, 1]<br/>class = Default>, fillcolor="#399de5"] ;
120 -> 121 ;
122 [label=<gini = 0.0<br/>samples = 12<br/>value = [17, 0]<br/>class = No Default>, fillcolor="#e58139"] ;
120 -> 122 ;
123 [label=<gini = 0.0<br/>samples = 30<br/>value = [54, 0]<br/>class = No Default>, fillcolor="#e58139"] ;
119 -> 123 ;
124 [label=<uti_card &le; 0.444<br/>gini = 0.105<br/>samples = 23<br/>value = [34, 2]<br/>class = No Default>, fillcolor="#e78845"] ;
112 -> 124 ;
125 [label=<gini = 0.0<br/>samples = 20<br/>value = [32, 0]<br/>class = No Default>, fillcolor="#e58139"] ;
124 -> 125 ;
126 [label=<card_age &le; 229.0<br/>gini = 0.5<br/>samples = 3<br/>value = [2, 2]<br/>class = No Default>, fillcolor="#ffffff"] ;
124 -> 126 ;
127 [label=<gini = 0.0<br/>samples = 1<br/>value = [0, 2]<br/>class = Default>, fillcolor="#399de5"] ;
126 -> 127 ;
128 [label=<gini = 0.0<br/>samples = 2<br/>value = [2, 0]<br/>class = No Default>, fillcolor="#e58139"] ;
126 -> 128 ;
129 [label=<non_mtg_acc_past_due_12_months_num &le; 0.5<br/>gini = 0.126<br/>samples = 48<br/>value = [69, 5]<br/>class = No Default>, fillcolor="#e78a47"] ;
111 -> 129 ;
130 [label=<uti_max_credit_line &le; 0.294<br/>gini = 0.056<br/>samples = 46<br/>value = [68, 2]<br/>class = No Default>, fillcolor="#e6853f"] ;
129 -> 130 ;
131 [label=<card_open_36_month_num &le; 0.5<br/>gini = 0.5<br/>samples = 2<br/>value = [2, 2]<br/>class = No Default>, fillcolor="#ffffff"] ;
130 -> 131 ;
132 [label=<gini = 0.0<br/>samples = 1<br/>value = [2, 0]<br/>class = No Default>, fillcolor="#e58139"] ;
131 -> 132 ;
133 [label=<gini = 0.0<br/>samples = 1<br/>value = [0, 2]<br/>class = Default>, fillcolor="#399de5"] ;
131 -> 133 ;
134 [label=<gini = 0.0<br/>samples = 44<br/>value = [66, 0]<br/>class = No Default>, fillcolor="#e58139"] ;
130 -> 134 ;
135 [label=<tot_credit_debt &le; 103015.883<br/>gini = 0.375<br/>samples = 2<br/>value = [1, 3]<br/>class = Default>, fillcolor="#7bbeee"] ;
129 -> 135 ;
136 [label=<gini = 0.0<br/>samples = 1<br/>value = [0, 3]<br/>class = Default>, fillcolor="#399de5"] ;
135 -> 136 ;
137 [label=<gini = 0.0<br/>samples = 1<br/>value = [1, 0]<br/>class = No Default>, fillcolor="#e58139"] ;
135 -> 137 ;
138 [label=<avg_card_debt &le; 7323.68<br/>gini = 0.034<br/>samples = 2242<br/>value = [3481.0, 62.0]<br/>class = No Default>, fillcolor="#e5833d"] ;
90 -> 138 ;
139 [label=<inq_12_month_num &le; 0.5<br/>gini = 0.38<br/>samples = 31<br/>value = [35.0, 12.0]<br/>class = No Default>, fillcolor="#eeac7d"] ;
138 -> 139 ;
140 [label=<card_age &le; 248.0<br/>gini = 0.499<br/>samples = 16<br/>value = [11, 10]<br/>class = No Default>, fillcolor="#fdf4ed"] ;
139 -> 140 ;
141 [label=<uti_card_50plus_pct &le; 0.423<br/>gini = 0.426<br/>samples = 9<br/>value = [4, 9]<br/>class = Default>, fillcolor="#91c9f1"] ;
140 -> 141 ;
142 [label=<non_mtg_acc_past_due_12_months_num &le; 0.5<br/>gini = 0.5<br/>samples = 7<br/>value = [4, 4]<br/>class = No Default>, fillcolor="#ffffff"] ;
141 -> 142 ;
143 [label=<credit_good_age &le; 99.5<br/>gini = 0.49<br/>samples = 6<br/>value = [3, 4]<br/>class = Default>, fillcolor="#cee6f8"] ;
142 -> 143 ;
144 [label=<gini = 0.0<br/>samples = 2<br/>value = [2, 0]<br/>class = No Default>, fillcolor="#e58139"] ;
143 -> 144 ;
145 [label=<uti_max_credit_line &le; 0.38<br/>gini = 0.32<br/>samples = 4<br/>value = [1, 4]<br/>class = Default>, fillcolor="#6ab6ec"] ;
143 -> 145 ;
146 [label=<gini = 0.0<br/>samples = 1<br/>value = [1, 0]<br/>class = No Default>, fillcolor="#e58139"] ;
145 -> 146 ;
147 [label=<gini = 0.0<br/>samples = 3<br/>value = [0, 4]<br/>class = Default>, fillcolor="#399de5"] ;
145 -> 147 ;
148 [label=<gini = 0.0<br/>samples = 1<br/>value = [1, 0]<br/>class = No Default>, fillcolor="#e58139"] ;
142 -> 148 ;
149 [label=<gini = 0.0<br/>samples = 2<br/>value = [0, 5]<br/>class = Default>, fillcolor="#399de5"] ;
141 -> 149 ;
150 [label=<uti_50plus_pct &le; 0.388<br/>gini = 0.219<br/>samples = 7<br/>value = [7, 1]<br/>class = No Default>, fillcolor="#e99355"] ;
140 -> 150 ;
151 [label=<gini = 0.0<br/>samples = 1<br/>value = [0, 1]<br/>class = Default>, fillcolor="#399de5"] ;
150 -> 151 ;
152 [label=<gini = 0.0<br/>samples = 6<br/>value = [7, 0]<br/>class = No Default>, fillcolor="#e58139"] ;
150 -> 152 ;
153 [label=<tot_credit_debt &le; 49917.43<br/>gini = 0.142<br/>samples = 15<br/>value = [24, 2]<br/>class = No Default>, fillcolor="#e78c49"] ;
139 -> 153 ;
154 [label=<rep_income &le; 98500.0<br/>gini = 0.5<br/>samples = 2<br/>value = [2, 2]<br/>class = No Default>, fillcolor="#ffffff"] ;
153 -> 154 ;
155 [label=<gini = 0.0<br/>samples = 1<br/>value = [2, 0]<br/>class = No Default>, fillcolor="#e58139"] ;
154 -> 155 ;
156 [label=<gini = 0.0<br/>samples = 1<br/>value = [0, 2]<br/>class = Default>, fillcolor="#399de5"] ;
154 -> 156 ;
157 [label=<gini = 0.0<br/>samples = 13<br/>value = [22, 0]<br/>class = No Default>, fillcolor="#e58139"] ;
153 -> 157 ;
158 [label=<avg_card_debt &le; 18540.815<br/>gini = 0.028<br/>samples = 2211<br/>value = [3446, 50]<br/>class = No Default>, fillcolor="#e5833c"] ;
138 -> 158 ;
159 [label=<credit_age &le; 90.5<br/>gini = 0.023<br/>samples = 2146<br/>value = [3349, 39]<br/>class = No Default>, fillcolor="#e5823b"] ;
158 -> 159 ;
160 [label=<tot_credit_debt &le; 64790.984<br/>gini = 0.5<br/>samples = 2<br/>value = [2, 2]<br/>class = No Default>, fillcolor="#ffffff"] ;
159 -> 160 ;
161 [label=<gini = 0.0<br/>samples = 1<br/>value = [2, 0]<br/>class = No Default>, fillcolor="#e58139"] ;
160 -> 161 ;
162 [label=<gini = 0.0<br/>samples = 1<br/>value = [0, 2]<br/>class = Default>, fillcolor="#399de5"] ;
160 -> 162 ;
163 [label=<uti_50plus_pct &le; 0.379<br/>gini = 0.022<br/>samples = 2144<br/>value = [3347, 37]<br/>class = No Default>, fillcolor="#e5823b"] ;
159 -> 163 ;
164 [label=<gini = 0.0<br/>samples = 1<br/>value = [0, 1]<br/>class = Default>, fillcolor="#399de5"] ;
163 -> 164 ;
165 [label=<tot_credit_debt &le; 50068.535<br/>gini = 0.021<br/>samples = 2143<br/>value = [3347, 36]<br/>class = No Default>, fillcolor="#e5823b"] ;
163 -> 165 ;
166 [label=<auto_open_ 36_month_num &le; 0.5<br/>gini = 0.32<br/>samples = 5<br/>value = [4, 1]<br/>class = No Default>, fillcolor="#eca06a"] ;
165 -> 166 ;
167 [label=<gini = 0.0<br/>samples = 3<br/>value = [3, 0]<br/>class = No Default>, fillcolor="#e58139"] ;
166 -> 167 ;
168 [label=<credit_age &le; 327.0<br/>gini = 0.5<br/>samples = 2<br/>value = [1, 1]<br/>class = No Default>, fillcolor="#ffffff"] ;
166 -> 168 ;
169 [label=<gini = 0.0<br/>samples = 1<br/>value = [0, 1]<br/>class = Default>, fillcolor="#399de5"] ;
168 -> 169 ;
170 [label=<gini = 0.0<br/>samples = 1<br/>value = [1, 0]<br/>class = No Default>, fillcolor="#e58139"] ;
168 -> 170 ;
171 [label=<uti_50plus_pct &le; 0.545<br/>gini = 0.021<br/>samples = 2138<br/>value = [3343, 35]<br/>class = No Default>, fillcolor="#e5823b"] ;
165 -> 171 ;
172 [label=<card_open_36_month_num &le; 1.5<br/>gini = 0.017<br/>samples = 1973<br/>value = [3092, 27]<br/>class = No Default>, fillcolor="#e5823b"] ;
171 -> 172 ;
173 [label=<credit_age &le; 194.5<br/>gini = 0.017<br/>samples = 1967<br/>value = [3085, 26]<br/>class = No Default>, fillcolor="#e5823b"] ;
172 -> 173 ;
174 [label=<card_inq_24_month_num &le; 8.5<br/>gini = 0.081<br/>samples = 91<br/>value = [136, 6]<br/>class = No Default>, fillcolor="#e68742"] ;
173 -> 174 ;
175 [label=<tot_credit_debt &le; 127021.051<br/>gini = 0.058<br/>samples = 86<br/>value = [130, 4]<br/>class = No Default>, fillcolor="#e6853f"] ;
174 -> 175 ;
176 [label=<credit_age &le; 184.5<br/>gini = 0.044<br/>samples = 84<br/>value = [129, 3]<br/>class = No Default>, fillcolor="#e6843e"] ;
175 -> 176 ;
177 [label=<gini = 0.0<br/>samples = 57<br/>value = [90, 0]<br/>class = No Default>, fillcolor="#e58139"] ;
176 -> 177 ;
178 [label=<credit_age &le; 185.5<br/>gini = 0.133<br/>samples = 27<br/>value = [39, 3]<br/>class = No Default>, fillcolor="#e78b48"] ;
176 -> 178 ;
179 [label=<avg_card_debt &le; 11593.44<br/>gini = 0.5<br/>samples = 2<br/>value = [2, 2]<br/>class = No Default>, fillcolor="#ffffff"] ;
178 -> 179 ;
180 [label=<gini = 0.0<br/>samples = 1<br/>value = [0, 2]<br/>class = Default>, fillcolor="#399de5"] ;
179 -> 180 ;
181 [label=<gini = 0.0<br/>samples = 1<br/>value = [2, 0]<br/>class = No Default>, fillcolor="#e58139"] ;
179 -> 181 ;
182 [label=<avg_card_debt &le; 9558.445<br/>gini = 0.051<br/>samples = 25<br/>value = [37, 1]<br/>class = No Default>, fillcolor="#e6843e"] ;
178 -> 182 ;
183 [label=<credit_good_age &le; 136.0<br/>gini = 0.375<br/>samples = 4<br/>value = [3, 1]<br/>class = No Default>, fillcolor="#eeab7b"] ;
182 -> 183 ;
184 [label=<gini = 0.0<br/>samples = 3<br/>value = [3, 0]<br/>class = No Default>, fillcolor="#e58139"] ;
183 -> 184 ;
185 [label=<gini = 0.0<br/>samples = 1<br/>value = [0, 1]<br/>class = Default>, fillcolor="#399de5"] ;
183 -> 185 ;
186 [label=<gini = 0.0<br/>samples = 21<br/>value = [34, 0]<br/>class = No Default>, fillcolor="#e58139"] ;
182 -> 186 ;
187 [label=<credit_good_age &le; 109.5<br/>gini = 0.5<br/>samples = 2<br/>value = [1, 1]<br/>class = No Default>, fillcolor="#ffffff"] ;
175 -> 187 ;
188 [label=<gini = 0.0<br/>samples = 1<br/>value = [1, 0]<br/>class = No Default>, fillcolor="#e58139"] ;
187 -> 188 ;
189 [label=<gini = 0.0<br/>samples = 1<br/>value = [0, 1]<br/>class = Default>, fillcolor="#399de5"] ;
187 -> 189 ;
190 [label=<uti_card_50plus_pct &le; 0.377<br/>gini = 0.375<br/>samples = 5<br/>value = [6, 2]<br/>class = No Default>, fillcolor="#eeab7b"] ;
174 -> 190 ;
191 [label=<gini = 0.0<br/>samples = 2<br/>value = [0, 2]<br/>class = Default>, fillcolor="#399de5"] ;
190 -> 191 ;
192 [label=<gini = 0.0<br/>samples = 3<br/>value = [6, 0]<br/>class = No Default>, fillcolor="#e58139"] ;
190 -> 192 ;
193 [label=<credit_good_age &le; 162.5<br/>gini = 0.013<br/>samples = 1876<br/>value = [2949, 20]<br/>class = No Default>, fillcolor="#e5823a"] ;
173 -> 193 ;
194 [label=<rep_income &le; 115500.0<br/>gini = 0.019<br/>samples = 1170<br/>value = [1838, 18]<br/>class = No Default>, fillcolor="#e5823b"] ;
193 -> 194 ;
195 [label=<uti_max_credit_line &le; 0.357<br/>gini = 0.017<br/>samples = 1164<br/>value = [1833, 16]<br/>class = No Default>, fillcolor="#e5823b"] ;
194 -> 195 ;
196 [label=<gini = 0.0<br/>samples = 244<br/>value = [394, 0]<br/>class = No Default>, fillcolor="#e58139"] ;
195 -> 196 ;
197 [label=<card_inq_24_month_num &le; 5.5<br/>gini = 0.022<br/>samples = 920<br/>value = [1439, 16]<br/>class = No Default>, fillcolor="#e5823b"] ;
195 -> 197 ;
198 [label=<uti_max_credit_line &le; 0.357<br/>gini = 0.011<br/>samples = 695<br/>value = [1101, 6]<br/>class = No Default>, fillcolor="#e5823a"] ;
197 -> 198 ;
199 [label=<gini = 0.0<br/>samples = 1<br/>value = [0, 1]<br/>class = Default>, fillcolor="#399de5"] ;
198 -> 199 ;
200 [label=<uti_card_50plus_pct &le; 0.5<br/>gini = 0.009<br/>samples = 694<br/>value = [1101, 5]<br/>class = No Default>, fillcolor="#e5823a"] ;
198 -> 200 ;
201 [label=<non_mtg_acc_past_due_12_months_num &le; 0.5<br/>gini = 0.006<br/>samples = 658<br/>value = [1049, 3]<br/>class = No Default>, fillcolor="#e5813a"] ;
200 -> 201 ;
202 [label=<uti_card_50plus_pct &le; 0.299<br/>gini = 0.004<br/>samples = 635<br/>value = [1017.0, 2.0]<br/>class = No Default>, fillcolor="#e58139"] ;
201 -> 202 ;
203 [label=<uti_50plus_pct &le; 0.392<br/>gini = 0.021<br/>samples = 58<br/>value = [95, 1]<br/>class = No Default>, fillcolor="#e5823b"] ;
202 -> 203 ;
204 [label=<rep_income &le; 57000.0<br/>gini = 0.153<br/>samples = 7<br/>value = [11, 1]<br/>class = No Default>, fillcolor="#e78c4b"] ;
203 -> 204 ;
205 [label=<rep_income &le; 47000.0<br/>gini = 0.5<br/>samples = 2<br/>value = [1, 1]<br/>class = No Default>, fillcolor="#ffffff"] ;
204 -> 205 ;
206 [label=<gini = 0.0<br/>samples = 1<br/>value = [1, 0]<br/>class = No Default>, fillcolor="#e58139"] ;
205 -> 206 ;
207 [label=<gini = 0.0<br/>samples = 1<br/>value = [0, 1]<br/>class = Default>, fillcolor="#399de5"] ;
205 -> 207 ;
208 [label=<gini = 0.0<br/>samples = 5<br/>value = [10, 0]<br/>class = No Default>, fillcolor="#e58139"] ;
204 -> 208 ;
209 [label=<gini = 0.0<br/>samples = 51<br/>value = [84, 0]<br/>class = No Default>, fillcolor="#e58139"] ;
203 -> 209 ;
210 [label=<inq_12_month_num &le; 1.5<br/>gini = 0.002<br/>samples = 577<br/>value = [922, 1]<br/>class = No Default>, fillcolor="#e58139"] ;
202 -> 210 ;
211 [label=<gini = 0.0<br/>samples = 387<br/>value = [625, 0]<br/>class = No Default>, fillcolor="#e58139"] ;
210 -> 211 ;
212 [label=<uti_card &le; 0.442<br/>gini = 0.007<br/>samples = 190<br/>value = [297, 1]<br/>class = No Default>, fillcolor="#e5813a"] ;
210 -> 212 ;
213 [label=<gini = 0.0<br/>samples = 173<br/>value = [272, 0]<br/>class = No Default>, fillcolor="#e58139"] ;
212 -> 213 ;
214 [label=<card_inq_24_month_num &le; 3.5<br/>gini = 0.074<br/>samples = 17<br/>value = [25, 1]<br/>class = No Default>, fillcolor="#e68641"] ;
212 -> 214 ;
215 [label=<uti_card &le; 0.443<br/>gini = 0.245<br/>samples = 5<br/>value = [6, 1]<br/>class = No Default>, fillcolor="#e9965a"] ;
214 -> 215 ;
216 [label=<gini = 0.0<br/>samples = 1<br/>value = [0, 1]<br/>class = Default>, fillcolor="#399de5"] ;
215 -> 216 ;
217 [label=<gini = 0.0<br/>samples = 4<br/>value = [6, 0]<br/>class = No Default>, fillcolor="#e58139"] ;
215 -> 217 ;
218 [label=<gini = 0.0<br/>samples = 12<br/>value = [19, 0]<br/>class = No Default>, fillcolor="#e58139"] ;
214 -> 218 ;
219 [label=<uti_card &le; 0.359<br/>gini = 0.059<br/>samples = 23<br/>value = [32, 1]<br/>class = No Default>, fillcolor="#e6853f"] ;
201 -> 219 ;
220 [label=<rep_income &le; 77500.0<br/>gini = 0.278<br/>samples = 4<br/>value = [5, 1]<br/>class = No Default>, fillcolor="#ea9a61"] ;
219 -> 220 ;
221 [label=<gini = 0.0<br/>samples = 1<br/>value = [0, 1]<br/>class = Default>, fillcolor="#399de5"] ;
220 -> 221 ;
222 [label=<gini = 0.0<br/>samples = 3<br/>value = [5, 0]<br/>class = No Default>, fillcolor="#e58139"] ;
220 -> 222 ;
223 [label=<gini = 0.0<br/>samples = 19<br/>value = [27, 0]<br/>class = No Default>, fillcolor="#e58139"] ;
219 -> 223 ;
224 [label=<uti_card_50plus_pct &le; 0.501<br/>gini = 0.071<br/>samples = 36<br/>value = [52, 2]<br/>class = No Default>, fillcolor="#e68641"] ;
200 -> 224 ;
225 [label=<gini = 0.0<br/>samples = 1<br/>value = [0, 2]<br/>class = Default>, fillcolor="#399de5"] ;
224 -> 225 ;
226 [label=<gini = 0.0<br/>samples = 35<br/>value = [52, 0]<br/>class = No Default>, fillcolor="#e58139"] ;
224 -> 226 ;
227 [label=<uti_max_credit_line &le; 0.359<br/>gini = 0.056<br/>samples = 225<br/>value = [338, 10]<br/>class = No Default>, fillcolor="#e6853f"] ;
197 -> 227 ;
228 [label=<gini = 0.0<br/>samples = 1<br/>value = [0, 1]<br/>class = Default>, fillcolor="#399de5"] ;
227 -> 228 ;
229 [label=<credit_good_age &le; 161.5<br/>gini = 0.051<br/>samples = 224<br/>value = [338, 9]<br/>class = No Default>, fillcolor="#e6843e"] ;
227 -> 229 ;
230 [label=<inq_12_month_num &le; 2.5<br/>gini = 0.04<br/>samples = 221<br/>value = [336.0, 7.0]<br/>class = No Default>, fillcolor="#e6843d"] ;
229 -> 230 ;
231 [label=<rep_income &le; 73500.0<br/>gini = 0.142<br/>samples = 27<br/>value = [36, 3]<br/>class = No Default>, fillcolor="#e78c49"] ;
230 -> 231 ;
232 [label=<avg_card_debt &le; 11920.91<br/>gini = 0.355<br/>samples = 11<br/>value = [10, 3]<br/>class = No Default>, fillcolor="#eda774"] ;
231 -> 232 ;
233 [label=<rep_income &le; 69500.0<br/>gini = 0.444<br/>samples = 2<br/>value = [1, 2]<br/>class = Default>, fillcolor="#9ccef2"] ;
232 -> 233 ;
234 [label=<gini = 0.0<br/>samples = 1<br/>value = [1, 0]<br/>class = No Default>, fillcolor="#e58139"] ;
233 -> 234 ;
235 [label=<gini = 0.0<br/>samples = 1<br/>value = [0, 2]<br/>class = Default>, fillcolor="#399de5"] ;
233 -> 235 ;
236 [label=<credit_age &le; 307.0<br/>gini = 0.18<br/>samples = 9<br/>value = [9, 1]<br/>class = No Default>, fillcolor="#e88f4f"] ;
232 -> 236 ;
237 [label=<gini = 0.0<br/>samples = 7<br/>value = [8, 0]<br/>class = No Default>, fillcolor="#e58139"] ;
236 -> 237 ;
238 [label=<credit_age &le; 323.5<br/>gini = 0.5<br/>samples = 2<br/>value = [1, 1]<br/>class = No Default>, fillcolor="#ffffff"] ;
236 -> 238 ;
239 [label=<gini = 0.0<br/>samples = 1<br/>value = [0, 1]<br/>class = Default>, fillcolor="#399de5"] ;
238 -> 239 ;
240 [label=<gini = 0.0<br/>samples = 1<br/>value = [1, 0]<br/>class = No Default>, fillcolor="#e58139"] ;
238 -> 240 ;
241 [label=<gini = 0.0<br/>samples = 16<br/>value = [26, 0]<br/>class = No Default>, fillcolor="#e58139"] ;
231 -> 241 ;
242 [label=<card_open_36_month_num &le; 0.5<br/>gini = 0.026<br/>samples = 194<br/>value = [300, 4]<br/>class = No Default>, fillcolor="#e5833c"] ;
230 -> 242 ;
243 [label=<uti_max_credit_line &le; 0.423<br/>gini = 0.008<br/>samples = 158<br/>value = [249, 1]<br/>class = No Default>, fillcolor="#e5823a"] ;
242 -> 243 ;
244 [label=<uti_card_50plus_pct &le; 0.47<br/>gini = 0.024<br/>samples = 57<br/>value = [83, 1]<br/>class = No Default>, fillcolor="#e5833b"] ;
243 -> 244 ;
245 [label=<gini = 0.0<br/>samples = 54<br/>value = [80, 0]<br/>class = No Default>, fillcolor="#e58139"] ;
244 -> 245 ;
246 [label=<credit_age &le; 236.0<br/>gini = 0.375<br/>samples = 3<br/>value = [3, 1]<br/>class = No Default>, fillcolor="#eeab7b"] ;
244 -> 246 ;
247 [label=<gini = 0.0<br/>samples = 1<br/>value = [0, 1]<br/>class = Default>, fillcolor="#399de5"] ;
246 -> 247 ;
248 [label=<gini = 0.0<br/>samples = 2<br/>value = [3, 0]<br/>class = No Default>, fillcolor="#e58139"] ;
246 -> 248 ;
249 [label=<gini = 0.0<br/>samples = 101<br/>value = [166, 0]<br/>class = No Default>, fillcolor="#e58139"] ;
243 -> 249 ;
250 [label=<uti_max_credit_line &le; 0.445<br/>gini = 0.105<br/>samples = 36<br/>value = [51, 3]<br/>class = No Default>, fillcolor="#e78845"] ;
242 -> 250 ;
251 [label=<gini = 0.0<br/>samples = 22<br/>value = [30, 0]<br/>class = No Default>, fillcolor="#e58139"] ;
250 -> 251 ;
252 [label=<non_mtg_acc_past_due_12_months_num &le; 0.5<br/>gini = 0.219<br/>samples = 14<br/>value = [21, 3]<br/>class = No Default>, fillcolor="#e99355"] ;
250 -> 252 ;
253 [label=<States_GA &le; 0.5<br/>gini = 0.159<br/>samples = 13<br/>value = [21, 2]<br/>class = No Default>, fillcolor="#e78d4c"] ;
252 -> 253 ;
254 [label=<tot_credit_debt &le; 66163.168<br/>gini = 0.198<br/>samples = 10<br/>value = [16, 2]<br/>class = No Default>, fillcolor="#e89152"] ;
253 -> 254 ;
255 [label=<gini = 0.0<br/>samples = 1<br/>value = [0, 1]<br/>class = Default>, fillcolor="#399de5"] ;
254 -> 255 ;
256 [label=<uti_50plus_pct &le; 0.499<br/>gini = 0.111<br/>samples = 9<br/>value = [16, 1]<br/>class = No Default>, fillcolor="#e78945"] ;
254 -> 256 ;
257 [label=<gini = 0.0<br/>samples = 4<br/>value = [10, 0]<br/>class = No Default>, fillcolor="#e58139"] ;
256 -> 257 ;
258 [label=<credit_age &le; 299.5<br/>gini = 0.245<br/>samples = 5<br/>value = [6, 1]<br/>class = No Default>, fillcolor="#e9965a"] ;
256 -> 258 ;
259 [label=<gini = 0.0<br/>samples = 3<br/>value = [5, 0]<br/>class = No Default>, fillcolor="#e58139"] ;
258 -> 259 ;
260 [label=<uti_card_50plus_pct &le; 0.272<br/>gini = 0.5<br/>samples = 2<br/>value = [1, 1]<br/>class = No Default>, fillcolor="#ffffff"] ;
258 -> 260 ;
261 [label=<gini = 0.0<br/>samples = 1<br/>value = [1, 0]<br/>class = No Default>, fillcolor="#e58139"] ;
260 -> 261 ;
262 [label=<gini = 0.0<br/>samples = 1<br/>value = [0, 1]<br/>class = Default>, fillcolor="#399de5"] ;
260 -> 262 ;
263 [label=<gini = 0.0<br/>samples = 3<br/>value = [5, 0]<br/>class = No Default>, fillcolor="#e58139"] ;
253 -> 263 ;
264 [label=<gini = 0.0<br/>samples = 1<br/>value = [0, 1]<br/>class = Default>, fillcolor="#399de5"] ;
252 -> 264 ;
265 [label=<States_AL &le; 0.5<br/>gini = 0.5<br/>samples = 3<br/>value = [2, 2]<br/>class = No Default>, fillcolor="#ffffff"] ;
229 -> 265 ;
266 [label=<States_NC &le; 0.5<br/>gini = 0.444<br/>samples = 2<br/>value = [1, 2]<br/>class = Default>, fillcolor="#9ccef2"] ;
265 -> 266 ;
267 [label=<gini = 0.0<br/>samples = 1<br/>value = [1, 0]<br/>class = No Default>, fillcolor="#e58139"] ;
266 -> 267 ;
268 [label=<gini = 0.0<br/>samples = 1<br/>value = [0, 2]<br/>class = Default>, fillcolor="#399de5"] ;
266 -> 268 ;
269 [label=<gini = 0.0<br/>samples = 1<br/>value = [1, 0]<br/>class = No Default>, fillcolor="#e58139"] ;
265 -> 269 ;
270 [label=<credit_age &le; 264.5<br/>gini = 0.408<br/>samples = 6<br/>value = [5, 2]<br/>class = No Default>, fillcolor="#efb388"] ;
194 -> 270 ;
271 [label=<credit_good_age &le; 130.0<br/>gini = 0.444<br/>samples = 2<br/>value = [1, 2]<br/>class = Default>, fillcolor="#9ccef2"] ;
270 -> 271 ;
272 [label=<gini = 0.0<br/>samples = 1<br/>value = [0, 2]<br/>class = Default>, fillcolor="#399de5"] ;
271 -> 272 ;
273 [label=<gini = 0.0<br/>samples = 1<br/>value = [1, 0]<br/>class = No Default>, fillcolor="#e58139"] ;
271 -> 273 ;
274 [label=<gini = 0.0<br/>samples = 4<br/>value = [4, 0]<br/>class = No Default>, fillcolor="#e58139"] ;
270 -> 274 ;
275 [label=<card_age &le; 304.5<br/>gini = 0.004<br/>samples = 706<br/>value = [1111, 2]<br/>class = No Default>, fillcolor="#e58139"] ;
193 -> 275 ;
276 [label=<gini = 0.0<br/>samples = 317<br/>value = [493, 0]<br/>class = No Default>, fillcolor="#e58139"] ;
275 -> 276 ;
277 [label=<credit_good_age &le; 212.5<br/>gini = 0.006<br/>samples = 389<br/>value = [618, 2]<br/>class = No Default>, fillcolor="#e5813a"] ;
275 -> 277 ;
278 [label=<tot_credit_debt &le; 51853.029<br/>gini = 0.004<br/>samples = 339<br/>value = [540, 1]<br/>class = No Default>, fillcolor="#e58139"] ;
277 -> 278 ;
279 [label=<gini = 0.0<br/>samples = 1<br/>value = [0, 1]<br/>class = Default>, fillcolor="#399de5"] ;
278 -> 279 ;
280 [label=<gini = 0.0<br/>samples = 338<br/>value = [540, 0]<br/>class = No Default>, fillcolor="#e58139"] ;
278 -> 280 ;
281 [label=<uti_card &le; 0.279<br/>gini = 0.025<br/>samples = 50<br/>value = [78, 1]<br/>class = No Default>, fillcolor="#e5833c"] ;
277 -> 281 ;
282 [label=<gini = 0.0<br/>samples = 1<br/>value = [0, 1]<br/>class = Default>, fillcolor="#399de5"] ;
281 -> 282 ;
283 [label=<gini = 0.0<br/>samples = 49<br/>value = [78, 0]<br/>class = No Default>, fillcolor="#e58139"] ;
281 -> 283 ;
284 [label=<uti_50plus_pct &le; 0.399<br/>gini = 0.219<br/>samples = 6<br/>value = [7, 1]<br/>class = No Default>, fillcolor="#e99355"] ;
172 -> 284 ;
285 [label=<gini = 0.0<br/>samples = 1<br/>value = [0, 1]<br/>class = Default>, fillcolor="#399de5"] ;
284 -> 285 ;
286 [label=<gini = 0.0<br/>samples = 5<br/>value = [7, 0]<br/>class = No Default>, fillcolor="#e58139"] ;
284 -> 286 ;
287 [label=<uti_card &le; 0.435<br/>gini = 0.06<br/>samples = 165<br/>value = [251, 8]<br/>class = No Default>, fillcolor="#e6853f"] ;
171 -> 287 ;
288 [label=<uti_50plus_pct &le; 0.546<br/>gini = 0.085<br/>samples = 119<br/>value = [171, 8]<br/>class = No Default>, fillcolor="#e68742"] ;
287 -> 288 ;
289 [label=<gini = 0.0<br/>samples = 1<br/>value = [0, 2]<br/>class = Default>, fillcolor="#399de5"] ;
288 -> 289 ;
290 [label=<States_FL &le; 0.5<br/>gini = 0.065<br/>samples = 118<br/>value = [171, 6]<br/>class = No Default>, fillcolor="#e68540"] ;
288 -> 290 ;
291 [label=<non_mtg_acc_past_due_12_months_num &le; 0.5<br/>gini = 0.083<br/>samples = 96<br/>value = [132, 6]<br/>class = No Default>, fillcolor="#e68742"] ;
290 -> 291 ;
292 [label=<avg_card_debt &le; 18169.77<br/>gini = 0.058<br/>samples = 93<br/>value = [131, 4]<br/>class = No Default>, fillcolor="#e6853f"] ;
291 -> 292 ;
293 [label=<States_LA &le; 0.5<br/>gini = 0.044<br/>samples = 92<br/>value = [131, 3]<br/>class = No Default>, fillcolor="#e6843e"] ;
292 -> 293 ;
294 [label=<tot_credit_debt &le; 103194.602<br/>gini = 0.056<br/>samples = 73<br/>value = [102, 3]<br/>class = No Default>, fillcolor="#e6853f"] ;
293 -> 294 ;
295 [label=<gini = 0.0<br/>samples = 48<br/>value = [71, 0]<br/>class = No Default>, fillcolor="#e58139"] ;
294 -> 295 ;
296 [label=<tot_credit_debt &le; 104124.09<br/>gini = 0.161<br/>samples = 25<br/>value = [31, 3]<br/>class = No Default>, fillcolor="#e88d4c"] ;
294 -> 296 ;
297 [label=<gini = 0.0<br/>samples = 1<br/>value = [0, 1]<br/>class = Default>, fillcolor="#399de5"] ;
296 -> 297 ;
298 [label=<uti_card_50plus_pct &le; 0.332<br/>gini = 0.114<br/>samples = 24<br/>value = [31, 2]<br/>class = No Default>, fillcolor="#e78946"] ;
296 -> 298 ;
299 [label=<uti_card_50plus_pct &le; 0.321<br/>gini = 0.408<br/>samples = 5<br/>value = [5, 2]<br/>class = No Default>, fillcolor="#efb388"] ;
298 -> 299 ;
300 [label=<gini = 0.0<br/>samples = 3<br/>value = [5, 0]<br/>class = No Default>, fillcolor="#e58139"] ;
299 -> 300 ;
301 [label=<gini = 0.0<br/>samples = 2<br/>value = [0, 2]<br/>class = Default>, fillcolor="#399de5"] ;
299 -> 301 ;
302 [label=<gini = 0.0<br/>samples = 19<br/>value = [26, 0]<br/>class = No Default>, fillcolor="#e58139"] ;
298 -> 302 ;
303 [label=<gini = 0.0<br/>samples = 19<br/>value = [29, 0]<br/>class = No Default>, fillcolor="#e58139"] ;
293 -> 303 ;
304 [label=<gini = 0.0<br/>samples = 1<br/>value = [0, 1]<br/>class = Default>, fillcolor="#399de5"] ;
292 -> 304 ;
305 [label=<uti_50plus_pct &le; 0.553<br/>gini = 0.444<br/>samples = 3<br/>value = [1, 2]<br/>class = Default>, fillcolor="#9ccef2"] ;
291 -> 305 ;
306 [label=<gini = 0.0<br/>samples = 1<br/>value = [1, 0]<br/>class = No Default>, fillcolor="#e58139"] ;
305 -> 306 ;
307 [label=<gini = 0.0<br/>samples = 2<br/>value = [0, 2]<br/>class = Default>, fillcolor="#399de5"] ;
305 -> 307 ;
308 [label=<gini = 0.0<br/>samples = 22<br/>value = [39, 0]<br/>class = No Default>, fillcolor="#e58139"] ;
290 -> 308 ;
309 [label=<gini = 0.0<br/>samples = 46<br/>value = [80, 0]<br/>class = No Default>, fillcolor="#e58139"] ;
287 -> 309 ;
310 [label=<card_age &le; 165.5<br/>gini = 0.183<br/>samples = 65<br/>value = [97, 11]<br/>class = No Default>, fillcolor="#e88f4f"] ;
158 -> 310 ;
311 [label=<rep_income &le; 72000.0<br/>gini = 0.444<br/>samples = 3<br/>value = [2, 4]<br/>class = Default>, fillcolor="#9ccef2"] ;
310 -> 311 ;
312 [label=<gini = 0.0<br/>samples = 2<br/>value = [0, 4]<br/>class = Default>, fillcolor="#399de5"] ;
311 -> 312 ;
313 [label=<gini = 0.0<br/>samples = 1<br/>value = [2, 0]<br/>class = No Default>, fillcolor="#e58139"] ;
311 -> 313 ;
314 [label=<uti_card_50plus_pct &le; 0.518<br/>gini = 0.128<br/>samples = 62<br/>value = [95.0, 7.0]<br/>class = No Default>, fillcolor="#e78a48"] ;
310 -> 314 ;
315 [label=<tot_credit_debt &le; 129146.09<br/>gini = 0.061<br/>samples = 58<br/>value = [93, 3]<br/>class = No Default>, fillcolor="#e6853f"] ;
314 -> 315 ;
316 [label=<rep_income &le; 92500.0<br/>gini = 0.025<br/>samples = 47<br/>value = [79, 1]<br/>class = No Default>, fillcolor="#e5833c"] ;
315 -> 316 ;
317 [label=<gini = 0.0<br/>samples = 40<br/>value = [71, 0]<br/>class = No Default>, fillcolor="#e58139"] ;
316 -> 317 ;
318 [label=<uti_card_50plus_pct &le; 0.414<br/>gini = 0.198<br/>samples = 7<br/>value = [8, 1]<br/>class = No Default>, fillcolor="#e89152"] ;
316 -> 318 ;
319 [label=<gini = 0.0<br/>samples = 4<br/>value = [6, 0]<br/>class = No Default>, fillcolor="#e58139"] ;
318 -> 319 ;
320 [label=<States_FL &le; 0.5<br/>gini = 0.444<br/>samples = 3<br/>value = [2, 1]<br/>class = No Default>, fillcolor="#f2c09c"] ;
318 -> 320 ;
321 [label=<gini = 0.0<br/>samples = 1<br/>value = [0, 1]<br/>class = Default>, fillcolor="#399de5"] ;
320 -> 321 ;
322 [label=<gini = 0.0<br/>samples = 2<br/>value = [2, 0]<br/>class = No Default>, fillcolor="#e58139"] ;
320 -> 322 ;
323 [label=<tot_credit_debt &le; 129371.875<br/>gini = 0.219<br/>samples = 11<br/>value = [14, 2]<br/>class = No Default>, fillcolor="#e99355"] ;
315 -> 323 ;
324 [label=<gini = 0.0<br/>samples = 1<br/>value = [0, 1]<br/>class = Default>, fillcolor="#399de5"] ;
323 -> 324 ;
325 [label=<uti_50plus_pct &le; 0.387<br/>gini = 0.124<br/>samples = 10<br/>value = [14, 1]<br/>class = No Default>, fillcolor="#e78a47"] ;
323 -> 325 ;
326 [label=<gini = 0.0<br/>samples = 1<br/>value = [0, 1]<br/>class = Default>, fillcolor="#399de5"] ;
325 -> 326 ;
327 [label=<gini = 0.0<br/>samples = 9<br/>value = [14, 0]<br/>class = No Default>, fillcolor="#e58139"] ;
325 -> 327 ;
328 [label=<uti_50plus_pct &le; 0.481<br/>gini = 0.444<br/>samples = 4<br/>value = [2, 4]<br/>class = Default>, fillcolor="#9ccef2"] ;
314 -> 328 ;
329 [label=<gini = 0.0<br/>samples = 2<br/>value = [2, 0]<br/>class = No Default>, fillcolor="#e58139"] ;
328 -> 329 ;
330 [label=<gini = 0.0<br/>samples = 2<br/>value = [0, 4]<br/>class = Default>, fillcolor="#399de5"] ;
328 -> 330 ;
331 [label=<uti_50plus_pct &le; 0.477<br/>gini = 0.236<br/>samples = 14<br/>value = [19, 3]<br/>class = No Default>, fillcolor="#e99558"] ;
89 -> 331 ;
332 [label=<credit_age &le; 151.0<br/>gini = 0.117<br/>samples = 9<br/>value = [15, 1]<br/>class = No Default>, fillcolor="#e78946"] ;
331 -> 332 ;
333 [label=<gini = 0.0<br/>samples = 1<br/>value = [0, 1]<br/>class = Default>, fillcolor="#399de5"] ;
332 -> 333 ;
334 [label=<gini = 0.0<br/>samples = 8<br/>value = [15, 0]<br/>class = No Default>, fillcolor="#e58139"] ;
332 -> 334 ;
335 [label=<uti_card_50plus_pct &le; 0.432<br/>gini = 0.444<br/>samples = 5<br/>value = [4, 2]<br/>class = No Default>, fillcolor="#f2c09c"] ;
331 -> 335 ;
336 [label=<gini = 0.0<br/>samples = 4<br/>value = [4, 0]<br/>class = No Default>, fillcolor="#e58139"] ;
335 -> 336 ;
337 [label=<gini = 0.0<br/>samples = 1<br/>value = [0, 2]<br/>class = Default>, fillcolor="#399de5"] ;
335 -> 337 ;
338 [label=<card_open_36_month_num &le; 1.5<br/>gini = 0.078<br/>samples = 4257<br/>value = [6449, 272]<br/>class = No Default>, fillcolor="#e68641"] ;
88 -> 338 ;
339 [label=<avg_card_debt &le; 7807.625<br/>gini = 0.077<br/>samples = 4230<br/>value = [6414, 268]<br/>class = No Default>, fillcolor="#e68641"] ;
338 -> 339 ;
340 [label=<credit_age &le; 294.0<br/>gini = 0.382<br/>samples = 88<br/>value = [107, 37]<br/>class = No Default>, fillcolor="#eead7d"] ;
339 -> 340 ;
341 [label=<uti_max_credit_line &le; 0.403<br/>gini = 0.499<br/>samples = 37<br/>value = [30.0, 28.0]<br/>class = No Default>, fillcolor="#fdf7f2"] ;
340 -> 341 ;
342 [label=<gini = 0.0<br/>samples = 3<br/>value = [0, 9]<br/>class = Default>, fillcolor="#399de5"] ;
341 -> 342 ;
343 [label=<uti_card_50plus_pct &le; 0.449<br/>gini = 0.475<br/>samples = 34<br/>value = [30, 19]<br/>class = No Default>, fillcolor="#f5d1b6"] ;
341 -> 343 ;
344 [label=<uti_card_50plus_pct &le; 0.419<br/>gini = 0.459<br/>samples = 10<br/>value = [5, 9]<br/>class = Default>, fillcolor="#a7d3f3"] ;
343 -> 344 ;
345 [label=<tot_credit_debt &le; 60610.574<br/>gini = 0.469<br/>samples = 6<br/>value = [5, 3]<br/>class = No Default>, fillcolor="#f5cdb0"] ;
344 -> 345 ;
346 [label=<gini = 0.0<br/>samples = 2<br/>value = [0, 3]<br/>class = Default>, fillcolor="#399de5"] ;
345 -> 346 ;
347 [label=<gini = 0.0<br/>samples = 4<br/>value = [5, 0]<br/>class = No Default>, fillcolor="#e58139"] ;
345 -> 347 ;
348 [label=<gini = 0.0<br/>samples = 4<br/>value = [0, 6]<br/>class = Default>, fillcolor="#399de5"] ;
344 -> 348 ;
349 [label=<inq_12_month_num &le; 3.5<br/>gini = 0.408<br/>samples = 24<br/>value = [25, 10]<br/>class = No Default>, fillcolor="#efb388"] ;
343 -> 349 ;
350 [label=<credit_good_age &le; 152.0<br/>gini = 0.35<br/>samples = 20<br/>value = [24, 7]<br/>class = No Default>, fillcolor="#eda673"] ;
349 -> 350 ;
351 [label=<uti_max_credit_line &le; 0.56<br/>gini = 0.293<br/>samples = 18<br/>value = [23, 5]<br/>class = No Default>, fillcolor="#eb9c64"] ;
350 -> 351 ;
352 [label=<credit_good_age &le; 123.5<br/>gini = 0.1<br/>samples = 12<br/>value = [18, 1]<br/>class = No Default>, fillcolor="#e68844"] ;
351 -> 352 ;
353 [label=<credit_good_age &le; 114.0<br/>gini = 0.245<br/>samples = 5<br/>value = [6, 1]<br/>class = No Default>, fillcolor="#e9965a"] ;
352 -> 353 ;
354 [label=<gini = 0.0<br/>samples = 4<br/>value = [6, 0]<br/>class = No Default>, fillcolor="#e58139"] ;
353 -> 354 ;
355 [label=<gini = 0.0<br/>samples = 1<br/>value = [0, 1]<br/>class = Default>, fillcolor="#399de5"] ;
353 -> 355 ;
356 [label=<gini = 0.0<br/>samples = 7<br/>value = [12, 0]<br/>class = No Default>, fillcolor="#e58139"] ;
352 -> 356 ;
357 [label=<uti_card &le; 0.546<br/>gini = 0.494<br/>samples = 6<br/>value = [5, 4]<br/>class = No Default>, fillcolor="#fae6d7"] ;
351 -> 357 ;
358 [label=<card_age &le; 164.5<br/>gini = 0.278<br/>samples = 4<br/>value = [5, 1]<br/>class = No Default>, fillcolor="#ea9a61"] ;
357 -> 358 ;
359 [label=<gini = 0.0<br/>samples = 1<br/>value = [0, 1]<br/>class = Default>, fillcolor="#399de5"] ;
358 -> 359 ;
360 [label=<gini = 0.0<br/>samples = 3<br/>value = [5, 0]<br/>class = No Default>, fillcolor="#e58139"] ;
358 -> 360 ;
361 [label=<gini = 0.0<br/>samples = 2<br/>value = [0, 3]<br/>class = Default>, fillcolor="#399de5"] ;
357 -> 361 ;
362 [label=<inq_12_month_num &le; 2.5<br/>gini = 0.444<br/>samples = 2<br/>value = [1, 2]<br/>class = Default>, fillcolor="#9ccef2"] ;
350 -> 362 ;
363 [label=<gini = 0.0<br/>samples = 1<br/>value = [1, 0]<br/>class = No Default>, fillcolor="#e58139"] ;
362 -> 363 ;
364 [label=<gini = 0.0<br/>samples = 1<br/>value = [0, 2]<br/>class = Default>, fillcolor="#399de5"] ;
362 -> 364 ;
365 [label=<avg_card_debt &le; 6664.215<br/>gini = 0.375<br/>samples = 4<br/>value = [1, 3]<br/>class = Default>, fillcolor="#7bbeee"] ;
349 -> 365 ;
366 [label=<gini = 0.0<br/>samples = 1<br/>value = [1, 0]<br/>class = No Default>, fillcolor="#e58139"] ;
365 -> 366 ;
367 [label=<gini = 0.0<br/>samples = 3<br/>value = [0, 3]<br/>class = Default>, fillcolor="#399de5"] ;
365 -> 367 ;
368 [label=<uti_card &le; 0.512<br/>gini = 0.187<br/>samples = 51<br/>value = [77, 9]<br/>class = No Default>, fillcolor="#e89050"] ;
340 -> 368 ;
369 [label=<inq_12_month_num &le; 1.5<br/>gini = 0.036<br/>samples = 32<br/>value = [53, 1]<br/>class = No Default>, fillcolor="#e5833d"] ;
368 -> 369 ;
370 [label=<States_NC &le; 0.5<br/>gini = 0.074<br/>samples = 18<br/>value = [25, 1]<br/>class = No Default>, fillcolor="#e68641"] ;
369 -> 370 ;
371 [label=<gini = 0.0<br/>samples = 13<br/>value = [21, 0]<br/>class = No Default>, fillcolor="#e58139"] ;
370 -> 371 ;
372 [label=<credit_good_age &le; 177.0<br/>gini = 0.32<br/>samples = 5<br/>value = [4, 1]<br/>class = No Default>, fillcolor="#eca06a"] ;
370 -> 372 ;
373 [label=<gini = 0.0<br/>samples = 4<br/>value = [4, 0]<br/>class = No Default>, fillcolor="#e58139"] ;
372 -> 373 ;
374 [label=<gini = 0.0<br/>samples = 1<br/>value = [0, 1]<br/>class = Default>, fillcolor="#399de5"] ;
372 -> 374 ;
375 [label=<gini = 0.0<br/>samples = 14<br/>value = [28, 0]<br/>class = No Default>, fillcolor="#e58139"] ;
369 -> 375 ;
376 [label=<card_inq_24_month_num &le; 7.5<br/>gini = 0.375<br/>samples = 19<br/>value = [24, 8]<br/>class = No Default>, fillcolor="#eeab7b"] ;
368 -> 376 ;
377 [label=<gini = 0.0<br/>samples = 14<br/>value = [21, 0]<br/>class = No Default>, fillcolor="#e58139"] ;
376 -> 377 ;
378 [label=<credit_age &le; 328.0<br/>gini = 0.397<br/>samples = 5<br/>value = [3, 8]<br/>class = Default>, fillcolor="#83c2ef"] ;
376 -> 378 ;
379 [label=<gini = 0.0<br/>samples = 1<br/>value = [2, 0]<br/>class = No Default>, fillcolor="#e58139"] ;
378 -> 379 ;
380 [label=<ind_acc_XYZ &le; 0.5<br/>gini = 0.198<br/>samples = 4<br/>value = [1, 8]<br/>class = Default>, fillcolor="#52a9e8"] ;
378 -> 380 ;
381 [label=<gini = 0.0<br/>samples = 3<br/>value = [0, 8]<br/>class = Default>, fillcolor="#399de5"] ;
380 -> 381 ;
382 [label=<gini = 0.0<br/>samples = 1<br/>value = [1, 0]<br/>class = No Default>, fillcolor="#e58139"] ;
380 -> 382 ;
383 [label=<credit_age &le; 327.5<br/>gini = 0.068<br/>samples = 4142<br/>value = [6307.0, 231.0]<br/>class = No Default>, fillcolor="#e68640"] ;
339 -> 383 ;
384 [label=<uti_card_50plus_pct &le; 0.525<br/>gini = 0.087<br/>samples = 2841<br/>value = [4296.0, 204.0]<br/>class = No Default>, fillcolor="#e68742"] ;
383 -> 384 ;
385 [label=<credit_age &le; 156.5<br/>gini = 0.074<br/>samples = 2034<br/>value = [3107, 124]<br/>class = No Default>, fillcolor="#e68641"] ;
384 -> 385 ;
386 [label=<card_inq_24_month_num &le; 9.5<br/>gini = 0.23<br/>samples = 38<br/>value = [59, 9]<br/>class = No Default>, fillcolor="#e99457"] ;
385 -> 386 ;
387 [label=<card_inq_24_month_num &le; 0.5<br/>gini = 0.19<br/>samples = 37<br/>value = [59, 7]<br/>class = No Default>, fillcolor="#e89050"] ;
386 -> 387 ;
388 [label=<uti_card &le; 0.459<br/>gini = 0.401<br/>samples = 10<br/>value = [13, 5]<br/>class = No Default>, fillcolor="#efb185"] ;
387 -> 388 ;
389 [label=<gini = 0.0<br/>samples = 1<br/>value = [0, 4]<br/>class = Default>, fillcolor="#399de5"] ;
388 -> 389 ;
390 [label=<uti_card &le; 0.538<br/>gini = 0.133<br/>samples = 9<br/>value = [13, 1]<br/>class = No Default>, fillcolor="#e78b48"] ;
388 -> 390 ;
391 [label=<gini = 0.0<br/>samples = 8<br/>value = [13, 0]<br/>class = No Default>, fillcolor="#e58139"] ;
390 -> 391 ;
392 [label=<gini = 0.0<br/>samples = 1<br/>value = [0, 1]<br/>class = Default>, fillcolor="#399de5"] ;
390 -> 392 ;
393 [label=<tot_credit_debt &le; 74085.879<br/>gini = 0.08<br/>samples = 27<br/>value = [46, 2]<br/>class = No Default>, fillcolor="#e68642"] ;
387 -> 393 ;
394 [label=<credit_good_age &le; 78.0<br/>gini = 0.32<br/>samples = 3<br/>value = [4, 1]<br/>class = No Default>, fillcolor="#eca06a"] ;
393 -> 394 ;
395 [label=<gini = 0.0<br/>samples = 1<br/>value = [3, 0]<br/>class = No Default>, fillcolor="#e58139"] ;
394 -> 395 ;
396 [label=<avg_card_debt &le; 12084.87<br/>gini = 0.5<br/>samples = 2<br/>value = [1, 1]<br/>class = No Default>, fillcolor="#ffffff"] ;
394 -> 396 ;
397 [label=<gini = 0.0<br/>samples = 1<br/>value = [0, 1]<br/>class = Default>, fillcolor="#399de5"] ;
396 -> 397 ;
398 [label=<gini = 0.0<br/>samples = 1<br/>value = [1, 0]<br/>class = No Default>, fillcolor="#e58139"] ;
396 -> 398 ;
399 [label=<credit_good_age &le; 59.5<br/>gini = 0.045<br/>samples = 24<br/>value = [42, 1]<br/>class = No Default>, fillcolor="#e6843e"] ;
393 -> 399 ;
400 [label=<card_inq_24_month_num &le; 5.0<br/>gini = 0.444<br/>samples = 2<br/>value = [2, 1]<br/>class = No Default>, fillcolor="#f2c09c"] ;
399 -> 400 ;
401 [label=<gini = 0.0<br/>samples = 1<br/>value = [2, 0]<br/>class = No Default>, fillcolor="#e58139"] ;
400 -> 401 ;
402 [label=<gini = 0.0<br/>samples = 1<br/>value = [0, 1]<br/>class = Default>, fillcolor="#399de5"] ;
400 -> 402 ;
403 [label=<gini = 0.0<br/>samples = 22<br/>value = [40, 0]<br/>class = No Default>, fillcolor="#e58139"] ;
399 -> 403 ;
404 [label=<gini = 0.0<br/>samples = 1<br/>value = [0, 2]<br/>class = Default>, fillcolor="#399de5"] ;
386 -> 404 ;
405 [label=<card_age &le; 130.0<br/>gini = 0.07<br/>samples = 1996<br/>value = [3048, 115]<br/>class = No Default>, fillcolor="#e68640"] ;
385 -> 405 ;
406 [label=<non_mtg_acc_past_due_12_months_num &le; 0.5<br/>gini = 0.32<br/>samples = 7<br/>value = [8, 2]<br/>class = No Default>, fillcolor="#eca06a"] ;
405 -> 406 ;
407 [label=<gini = 0.0<br/>samples = 6<br/>value = [8, 0]<br/>class = No Default>, fillcolor="#e58139"] ;
406 -> 407 ;
408 [label=<gini = 0.0<br/>samples = 1<br/>value = [0, 2]<br/>class = Default>, fillcolor="#399de5"] ;
406 -> 408 ;
409 [label=<uti_card_50plus_pct &le; 0.45<br/>gini = 0.069<br/>samples = 1989<br/>value = [3040, 113]<br/>class = No Default>, fillcolor="#e68640"] ;
405 -> 409 ;
410 [label=<card_inq_24_month_num &le; 1.5<br/>gini = 0.089<br/>samples = 752<br/>value = [1119, 55]<br/>class = No Default>, fillcolor="#e68743"] ;
409 -> 410 ;
411 [label=<credit_age &le; 205.5<br/>gini = 0.045<br/>samples = 253<br/>value = [379, 9]<br/>class = No Default>, fillcolor="#e6843e"] ;
410 -> 411 ;
412 [label=<uti_max_credit_line &le; 0.582<br/>gini = 0.165<br/>samples = 12<br/>value = [20, 2]<br/>class = No Default>, fillcolor="#e88e4d"] ;
411 -> 412 ;
413 [label=<gini = 0.0<br/>samples = 11<br/>value = [20, 0]<br/>class = No Default>, fillcolor="#e58139"] ;
412 -> 413 ;
414 [label=<gini = 0.0<br/>samples = 1<br/>value = [0, 2]<br/>class = Default>, fillcolor="#399de5"] ;
412 -> 414 ;
415 [label=<card_age &le; 185.0<br/>gini = 0.038<br/>samples = 241<br/>value = [359, 7]<br/>class = No Default>, fillcolor="#e6833d"] ;
411 -> 415 ;
416 [label=<uti_50plus_pct &le; 0.503<br/>gini = 0.18<br/>samples = 8<br/>value = [9, 1]<br/>class = No Default>, fillcolor="#e88f4f"] ;
415 -> 416 ;
417 [label=<gini = 0.0<br/>samples = 4<br/>value = [5, 0]<br/>class = No Default>, fillcolor="#e58139"] ;
416 -> 417 ;
418 [label=<tot_credit_debt &le; 116209.07<br/>gini = 0.32<br/>samples = 4<br/>value = [4, 1]<br/>class = No Default>, fillcolor="#eca06a"] ;
416 -> 418 ;
419 [label=<gini = 0.0<br/>samples = 3<br/>value = [4, 0]<br/>class = No Default>, fillcolor="#e58139"] ;
418 -> 419 ;
420 [label=<gini = 0.0<br/>samples = 1<br/>value = [0, 1]<br/>class = Default>, fillcolor="#399de5"] ;
418 -> 420 ;
421 [label=<rep_income &le; 71500.0<br/>gini = 0.033<br/>samples = 233<br/>value = [350, 6]<br/>class = No Default>, fillcolor="#e5833c"] ;
415 -> 421 ;
422 [label=<avg_card_debt &le; 8531.555<br/>gini = 0.071<br/>samples = 85<br/>value = [131, 5]<br/>class = No Default>, fillcolor="#e68641"] ;
421 -> 422 ;
423 [label=<tot_credit_debt &le; 77786.41<br/>gini = 0.5<br/>samples = 3<br/>value = [2, 2]<br/>class = No Default>, fillcolor="#ffffff"] ;
422 -> 423 ;
424 [label=<gini = 0.0<br/>samples = 2<br/>value = [2, 0]<br/>class = No Default>, fillcolor="#e58139"] ;
423 -> 424 ;
425 [label=<gini = 0.0<br/>samples = 1<br/>value = [0, 2]<br/>class = Default>, fillcolor="#399de5"] ;
423 -> 425 ;
426 [label=<uti_50plus_pct &le; 0.557<br/>gini = 0.044<br/>samples = 82<br/>value = [129, 3]<br/>class = No Default>, fillcolor="#e6843e"] ;
422 -> 426 ;
427 [label=<gini = 0.0<br/>samples = 68<br/>value = [104, 0]<br/>class = No Default>, fillcolor="#e58139"] ;
426 -> 427 ;
428 [label=<rep_income &le; 68000.0<br/>gini = 0.191<br/>samples = 14<br/>value = [25, 3]<br/>class = No Default>, fillcolor="#e89051"] ;
426 -> 428 ;
429 [label=<gini = 0.0<br/>samples = 11<br/>value = [24, 0]<br/>class = No Default>, fillcolor="#e58139"] ;
428 -> 429 ;
430 [label=<uti_card_50plus_pct &le; 0.382<br/>gini = 0.375<br/>samples = 3<br/>value = [1, 3]<br/>class = Default>, fillcolor="#7bbeee"] ;
428 -> 430 ;
431 [label=<gini = 0.0<br/>samples = 1<br/>value = [1, 0]<br/>class = No Default>, fillcolor="#e58139"] ;
430 -> 431 ;
432 [label=<gini = 0.0<br/>samples = 2<br/>value = [0, 3]<br/>class = Default>, fillcolor="#399de5"] ;
430 -> 432 ;
433 [label=<avg_card_debt &le; 18316.545<br/>gini = 0.009<br/>samples = 148<br/>value = [219, 1]<br/>class = No Default>, fillcolor="#e5823a"] ;
421 -> 433 ;
434 [label=<gini = 0.0<br/>samples = 144<br/>value = [212, 0]<br/>class = No Default>, fillcolor="#e58139"] ;
433 -> 434 ;
435 [label=<credit_good_age &le; 163.0<br/>gini = 0.219<br/>samples = 4<br/>value = [7, 1]<br/>class = No Default>, fillcolor="#e99355"] ;
433 -> 435 ;
436 [label=<gini = 0.0<br/>samples = 3<br/>value = [7, 0]<br/>class = No Default>, fillcolor="#e58139"] ;
435 -> 436 ;
437 [label=<gini = 0.0<br/>samples = 1<br/>value = [0, 1]<br/>class = Default>, fillcolor="#399de5"] ;
435 -> 437 ;
438 [label=<avg_card_debt &le; 59624.585<br/>gini = 0.11<br/>samples = 499<br/>value = [740, 46]<br/>class = No Default>, fillcolor="#e78945"] ;
410 -> 438 ;
439 [label=<credit_past_due_amount &le; 158.195<br/>gini = 0.099<br/>samples = 495<br/>value = [740, 41]<br/>class = No Default>, fillcolor="#e68844"] ;
438 -> 439 ;
440 [label=<uti_card &le; 0.472<br/>gini = 0.097<br/>samples = 493<br/>value = [739, 40]<br/>class = No Default>, fillcolor="#e68844"] ;
439 -> 440 ;
441 [label=<credit_good_age &le; 160.5<br/>gini = 0.044<br/>samples = 194<br/>value = [301, 7]<br/>class = No Default>, fillcolor="#e6843e"] ;
440 -> 441 ;
442 [label=<uti_50plus_pct &le; 0.475<br/>gini = 0.022<br/>samples = 162<br/>value = [261, 3]<br/>class = No Default>, fillcolor="#e5823b"] ;
441 -> 442 ;
443 [label=<card_inq_24_month_num &le; 3.5<br/>gini = 0.044<br/>samples = 83<br/>value = [130, 3]<br/>class = No Default>, fillcolor="#e6843e"] ;
442 -> 443 ;
444 [label=<uti_card_50plus_pct &le; 0.448<br/>gini = 0.109<br/>samples = 33<br/>value = [49, 3]<br/>class = No Default>, fillcolor="#e78945"] ;
443 -> 444 ;
445 [label=<States_AL &le; 0.5<br/>gini = 0.039<br/>samples = 32<br/>value = [49, 1]<br/>class = No Default>, fillcolor="#e6843d"] ;
444 -> 445 ;
446 [label=<gini = 0.0<br/>samples = 30<br/>value = [47, 0]<br/>class = No Default>, fillcolor="#e58139"] ;
445 -> 446 ;
447 [label=<uti_50plus_pct &le; 0.412<br/>gini = 0.444<br/>samples = 2<br/>value = [2, 1]<br/>class = No Default>, fillcolor="#f2c09c"] ;
445 -> 447 ;
448 [label=<gini = 0.0<br/>samples = 1<br/>value = [0, 1]<br/>class = Default>, fillcolor="#399de5"] ;
447 -> 448 ;
449 [label=<gini = 0.0<br/>samples = 1<br/>value = [2, 0]<br/>class = No Default>, fillcolor="#e58139"] ;
447 -> 449 ;
450 [label=<gini = 0.0<br/>samples = 1<br/>value = [0, 2]<br/>class = Default>, fillcolor="#399de5"] ;
444 -> 450 ;
451 [label=<gini = 0.0<br/>samples = 50<br/>value = [81, 0]<br/>class = No Default>, fillcolor="#e58139"] ;
443 -> 451 ;
452 [label=<gini = 0.0<br/>samples = 79<br/>value = [131, 0]<br/>class = No Default>, fillcolor="#e58139"] ;
442 -> 452 ;
453 [label=<uti_50plus_pct &le; 0.34<br/>gini = 0.165<br/>samples = 32<br/>value = [40, 4]<br/>class = No Default>, fillcolor="#e88e4d"] ;
441 -> 453 ;
454 [label=<credit_good_age &le; 163.0<br/>gini = 0.375<br/>samples = 2<br/>value = [1, 3]<br/>class = Default>, fillcolor="#7bbeee"] ;
453 -> 454 ;
455 [label=<gini = 0.0<br/>samples = 1<br/>value = [0, 3]<br/>class = Default>, fillcolor="#399de5"] ;
454 -> 455 ;
456 [label=<gini = 0.0<br/>samples = 1<br/>value = [1, 0]<br/>class = No Default>, fillcolor="#e58139"] ;
454 -> 456 ;
457 [label=<card_inq_24_month_num &le; 5.5<br/>gini = 0.049<br/>samples = 30<br/>value = [39, 1]<br/>class = No Default>, fillcolor="#e6843e"] ;
453 -> 457 ;
458 [label=<gini = 0.0<br/>samples = 19<br/>value = [25, 0]<br/>class = No Default>, fillcolor="#e58139"] ;
457 -> 458 ;
459 [label=<uti_50plus_pct &le; 0.533<br/>gini = 0.124<br/>samples = 11<br/>value = [14, 1]<br/>class = No Default>, fillcolor="#e78a47"] ;
457 -> 459 ;
460 [label=<gini = 0.0<br/>samples = 7<br/>value = [10, 0]<br/>class = No Default>, fillcolor="#e58139"] ;
459 -> 460 ;
461 [label=<uti_card &le; 0.466<br/>gini = 0.32<br/>samples = 4<br/>value = [4, 1]<br/>class = No Default>, fillcolor="#eca06a"] ;
459 -> 461 ;
462 [label=<gini = 0.0<br/>samples = 3<br/>value = [4, 0]<br/>class = No Default>, fillcolor="#e58139"] ;
461 -> 462 ;
463 [label=<gini = 0.0<br/>samples = 1<br/>value = [0, 1]<br/>class = Default>, fillcolor="#399de5"] ;
461 -> 463 ;
464 [label=<rep_income &le; 80500.0<br/>gini = 0.13<br/>samples = 299<br/>value = [438, 33]<br/>class = No Default>, fillcolor="#e78a48"] ;
440 -> 464 ;
465 [label=<tot_credit_debt &le; 134382.625<br/>gini = 0.099<br/>samples = 205<br/>value = [308, 17]<br/>class = No Default>, fillcolor="#e68844"] ;
464 -> 465 ;
466 [label=<card_inq_24_month_num &le; 9.5<br/>gini = 0.089<br/>samples = 204<br/>value = [308, 15]<br/>class = No Default>, fillcolor="#e68743"] ;
465 -> 466 ;
467 [label=<uti_max_credit_line &le; 0.648<br/>gini = 0.069<br/>samples = 195<br/>value = [297, 11]<br/>class = No Default>, fillcolor="#e68640"] ;
466 -> 467 ;
468 [label=<rep_income &le; 38500.0<br/>gini = 0.058<br/>samples = 190<br/>value = [291, 9]<br/>class = No Default>, fillcolor="#e6853f"] ;
467 -> 468 ;
469 [label=<inq_12_month_num &le; 1.5<br/>gini = 0.26<br/>samples = 10<br/>value = [11, 2]<br/>class = No Default>, fillcolor="#ea985d"] ;
468 -> 469 ;
470 [label=<States_LA &le; 0.5<br/>gini = 0.444<br/>samples = 2<br/>value = [1, 2]<br/>class = Default>, fillcolor="#9ccef2"] ;
469 -> 470 ;
471 [label=<gini = 0.0<br/>samples = 1<br/>value = [1, 0]<br/>class = No Default>, fillcolor="#e58139"] ;
470 -> 471 ;
472 [label=<gini = 0.0<br/>samples = 1<br/>value = [0, 2]<br/>class = Default>, fillcolor="#399de5"] ;
470 -> 472 ;
473 [label=<gini = 0.0<br/>samples = 8<br/>value = [10, 0]<br/>class = No Default>, fillcolor="#e58139"] ;
469 -> 473 ;
474 [label=<uti_card &le; 0.484<br/>gini = 0.048<br/>samples = 180<br/>value = [280, 7]<br/>class = No Default>, fillcolor="#e6843e"] ;
468 -> 474 ;
475 [label=<credit_age &le; 322.5<br/>gini = 0.135<br/>samples = 33<br/>value = [51, 4]<br/>class = No Default>, fillcolor="#e78b49"] ;
474 -> 475 ;
476 [label=<uti_max_credit_line &le; 0.58<br/>gini = 0.107<br/>samples = 31<br/>value = [50, 3]<br/>class = No Default>, fillcolor="#e78945"] ;
475 -> 476 ;
477 [label=<uti_max_credit_line &le; 0.547<br/>gini = 0.043<br/>samples = 28<br/>value = [45, 1]<br/>class = No Default>, fillcolor="#e6843d"] ;
476 -> 477 ;
478 [label=<gini = 0.0<br/>samples = 21<br/>value = [34, 0]<br/>class = No Default>, fillcolor="#e58139"] ;
477 -> 478 ;
479 [label=<uti_max_credit_line &le; 0.551<br/>gini = 0.153<br/>samples = 7<br/>value = [11, 1]<br/>class = No Default>, fillcolor="#e78c4b"] ;
477 -> 479 ;
480 [label=<gini = 0.0<br/>samples = 1<br/>value = [0, 1]<br/>class = Default>, fillcolor="#399de5"] ;
479 -> 480 ;
481 [label=<gini = 0.0<br/>samples = 6<br/>value = [11, 0]<br/>class = No Default>, fillcolor="#e58139"] ;
479 -> 481 ;
482 [label=<card_age &le; 262.5<br/>gini = 0.408<br/>samples = 3<br/>value = [5, 2]<br/>class = No Default>, fillcolor="#efb388"] ;
476 -> 482 ;
483 [label=<gini = 0.0<br/>samples = 1<br/>value = [0, 2]<br/>class = Default>, fillcolor="#399de5"] ;
482 -> 483 ;
484 [label=<gini = 0.0<br/>samples = 2<br/>value = [5, 0]<br/>class = No Default>, fillcolor="#e58139"] ;
482 -> 484 ;
485 [label=<ind_acc_XYZ &le; 0.5<br/>gini = 0.5<br/>samples = 2<br/>value = [1, 1]<br/>class = No Default>, fillcolor="#ffffff"] ;
475 -> 485 ;
486 [label=<gini = 0.0<br/>samples = 1<br/>value = [0, 1]<br/>class = Default>, fillcolor="#399de5"] ;
485 -> 486 ;
487 [label=<gini = 0.0<br/>samples = 1<br/>value = [1, 0]<br/>class = No Default>, fillcolor="#e58139"] ;
485 -> 487 ;
488 [label=<credit_good_age &le; 99.5<br/>gini = 0.026<br/>samples = 147<br/>value = [229, 3]<br/>class = No Default>, fillcolor="#e5833c"] ;
474 -> 488 ;
489 [label=<States_NC &le; 0.5<br/>gini = 0.219<br/>samples = 11<br/>value = [14, 2]<br/>class = No Default>, fillcolor="#e99355"] ;
488 -> 489 ;
490 [label=<gini = 0.0<br/>samples = 9<br/>value = [14, 0]<br/>class = No Default>, fillcolor="#e58139"] ;
489 -> 490 ;
491 [label=<gini = 0.0<br/>samples = 2<br/>value = [0, 2]<br/>class = Default>, fillcolor="#399de5"] ;
489 -> 491 ;
492 [label=<avg_card_debt &le; 18355.5<br/>gini = 0.009<br/>samples = 136<br/>value = [215, 1]<br/>class = No Default>, fillcolor="#e5823a"] ;
488 -> 492 ;
493 [label=<gini = 0.0<br/>samples = 134<br/>value = [213, 0]<br/>class = No Default>, fillcolor="#e58139"] ;
492 -> 493 ;
494 [label=<States_SC &le; 0.5<br/>gini = 0.444<br/>samples = 2<br/>value = [2, 1]<br/>class = No Default>, fillcolor="#f2c09c"] ;
492 -> 494 ;
495 [label=<gini = 0.0<br/>samples = 1<br/>value = [0, 1]<br/>class = Default>, fillcolor="#399de5"] ;
494 -> 495 ;
496 [label=<gini = 0.0<br/>samples = 1<br/>value = [2, 0]<br/>class = No Default>, fillcolor="#e58139"] ;
494 -> 496 ;
497 [label=<States_AL &le; 0.5<br/>gini = 0.375<br/>samples = 5<br/>value = [6, 2]<br/>class = No Default>, fillcolor="#eeab7b"] ;
467 -> 497 ;
498 [label=<gini = 0.0<br/>samples = 3<br/>value = [5, 0]<br/>class = No Default>, fillcolor="#e58139"] ;
497 -> 498 ;
499 [label=<card_age &le; 255.0<br/>gini = 0.444<br/>samples = 2<br/>value = [1, 2]<br/>class = Default>, fillcolor="#9ccef2"] ;
497 -> 499 ;
500 [label=<gini = 0.0<br/>samples = 1<br/>value = [0, 2]<br/>class = Default>, fillcolor="#399de5"] ;
499 -> 500 ;
501 [label=<gini = 0.0<br/>samples = 1<br/>value = [1, 0]<br/>class = No Default>, fillcolor="#e58139"] ;
499 -> 501 ;
502 [label=<avg_card_debt &le; 11369.28<br/>gini = 0.391<br/>samples = 9<br/>value = [11, 4]<br/>class = No Default>, fillcolor="#eeaf81"] ;
466 -> 502 ;
503 [label=<avg_card_debt &le; 9135.13<br/>gini = 0.49<br/>samples = 3<br/>value = [3, 4]<br/>class = Default>, fillcolor="#cee6f8"] ;
502 -> 503 ;
504 [label=<gini = 0.0<br/>samples = 1<br/>value = [3, 0]<br/>class = No Default>, fillcolor="#e58139"] ;
503 -> 504 ;
505 [label=<gini = 0.0<br/>samples = 2<br/>value = [0, 4]<br/>class = Default>, fillcolor="#399de5"] ;
503 -> 505 ;
506 [label=<gini = 0.0<br/>samples = 6<br/>value = [8, 0]<br/>class = No Default>, fillcolor="#e58139"] ;
502 -> 506 ;
507 [label=<gini = 0.0<br/>samples = 1<br/>value = [0, 2]<br/>class = Default>, fillcolor="#399de5"] ;
465 -> 507 ;
508 [label=<credit_good_age &le; 186.5<br/>gini = 0.195<br/>samples = 94<br/>value = [130, 16]<br/>class = No Default>, fillcolor="#e89151"] ;
464 -> 508 ;
509 [label=<uti_50plus_pct &le; 0.486<br/>gini = 0.159<br/>samples = 91<br/>value = [126.0, 12.0]<br/>class = No Default>, fillcolor="#e78d4c"] ;
508 -> 509 ;
510 [label=<States_LA &le; 0.5<br/>gini = 0.315<br/>samples = 30<br/>value = [37, 9]<br/>class = No Default>, fillcolor="#eba069"] ;
509 -> 510 ;
511 [label=<uti_50plus_pct &le; 0.467<br/>gini = 0.283<br/>samples = 26<br/>value = [34.0, 7.0]<br/>class = No Default>, fillcolor="#ea9b62"] ;
510 -> 511 ;
512 [label=<States_FL &le; 0.5<br/>gini = 0.165<br/>samples = 20<br/>value = [30, 3]<br/>class = No Default>, fillcolor="#e88e4d"] ;
511 -> 512 ;
513 [label=<gini = 0.0<br/>samples = 14<br/>value = [25, 0]<br/>class = No Default>, fillcolor="#e58139"] ;
512 -> 513 ;
514 [label=<uti_card &le; 0.504<br/>gini = 0.469<br/>samples = 6<br/>value = [5, 3]<br/>class = No Default>, fillcolor="#f5cdb0"] ;
512 -> 514 ;
515 [label=<uti_card &le; 0.48<br/>gini = 0.408<br/>samples = 5<br/>value = [5, 2]<br/>class = No Default>, fillcolor="#efb388"] ;
514 -> 515 ;
516 [label=<uti_max_credit_line &le; 0.462<br/>gini = 0.444<br/>samples = 2<br/>value = [1, 2]<br/>class = Default>, fillcolor="#9ccef2"] ;
515 -> 516 ;
517 [label=<gini = 0.0<br/>samples = 1<br/>value = [0, 2]<br/>class = Default>, fillcolor="#399de5"] ;
516 -> 517 ;
518 [label=<gini = 0.0<br/>samples = 1<br/>value = [1, 0]<br/>class = No Default>, fillcolor="#e58139"] ;
516 -> 518 ;
519 [label=<gini = 0.0<br/>samples = 3<br/>value = [4, 0]<br/>class = No Default>, fillcolor="#e58139"] ;
515 -> 519 ;
520 [label=<gini = 0.0<br/>samples = 1<br/>value = [0, 1]<br/>class = Default>, fillcolor="#399de5"] ;
514 -> 520 ;
521 [label=<credit_good_age &le; 166.0<br/>gini = 0.5<br/>samples = 6<br/>value = [4, 4]<br/>class = No Default>, fillcolor="#ffffff"] ;
511 -> 521 ;
522 [label=<avg_card_debt &le; 12474.14<br/>gini = 0.444<br/>samples = 4<br/>value = [2, 4]<br/>class = Default>, fillcolor="#9ccef2"] ;
521 -> 522 ;
523 [label=<gini = 0.0<br/>samples = 2<br/>value = [0, 4]<br/>class = Default>, fillcolor="#399de5"] ;
522 -> 523 ;
524 [label=<gini = 0.0<br/>samples = 2<br/>value = [2, 0]<br/>class = No Default>, fillcolor="#e58139"] ;
522 -> 524 ;
525 [label=<gini = 0.0<br/>samples = 2<br/>value = [2, 0]<br/>class = No Default>, fillcolor="#e58139"] ;
521 -> 525 ;
526 [label=<avg_card_debt &le; 13636.855<br/>gini = 0.48<br/>samples = 4<br/>value = [3, 2]<br/>class = No Default>, fillcolor="#f6d5bd"] ;
510 -> 526 ;
527 [label=<gini = 0.0<br/>samples = 1<br/>value = [0, 2]<br/>class = Default>, fillcolor="#399de5"] ;
526 -> 527 ;
528 [label=<gini = 0.0<br/>samples = 3<br/>value = [3, 0]<br/>class = No Default>, fillcolor="#e58139"] ;
526 -> 528 ;
529 [label=<card_inq_24_month_num &le; 8.5<br/>gini = 0.063<br/>samples = 61<br/>value = [89, 3]<br/>class = No Default>, fillcolor="#e68540"] ;
509 -> 529 ;
530 [label=<uti_card_50plus_pct &le; 0.433<br/>gini = 0.025<br/>samples = 55<br/>value = [79, 1]<br/>class = No Default>, fillcolor="#e5833c"] ;
529 -> 530 ;
531 [label=<gini = 0.0<br/>samples = 40<br/>value = [57, 0]<br/>class = No Default>, fillcolor="#e58139"] ;
530 -> 531 ;
532 [label=<uti_card_50plus_pct &le; 0.434<br/>gini = 0.083<br/>samples = 15<br/>value = [22, 1]<br/>class = No Default>, fillcolor="#e68742"] ;
530 -> 532 ;
533 [label=<gini = 0.0<br/>samples = 1<br/>value = [0, 1]<br/>class = Default>, fillcolor="#399de5"] ;
532 -> 533 ;
534 [label=<gini = 0.0<br/>samples = 14<br/>value = [22, 0]<br/>class = No Default>, fillcolor="#e58139"] ;
532 -> 534 ;
535 [label=<avg_card_debt &le; 15264.565<br/>gini = 0.278<br/>samples = 6<br/>value = [10, 2]<br/>class = No Default>, fillcolor="#ea9a61"] ;
529 -> 535 ;
536 [label=<rep_income &le; 108500.0<br/>gini = 0.165<br/>samples = 5<br/>value = [10, 1]<br/>class = No Default>, fillcolor="#e88e4d"] ;
535 -> 536 ;
537 [label=<gini = 0.0<br/>samples = 4<br/>value = [10, 0]<br/>class = No Default>, fillcolor="#e58139"] ;
536 -> 537 ;
538 [label=<gini = 0.0<br/>samples = 1<br/>value = [0, 1]<br/>class = Default>, fillcolor="#399de5"] ;
536 -> 538 ;
539 [label=<gini = 0.0<br/>samples = 1<br/>value = [0, 1]<br/>class = Default>, fillcolor="#399de5"] ;
535 -> 539 ;
540 [label=<tot_credit_debt &le; 85205.883<br/>gini = 0.5<br/>samples = 3<br/>value = [4, 4]<br/>class = No Default>, fillcolor="#ffffff"] ;
508 -> 540 ;
541 [label=<gini = 0.0<br/>samples = 1<br/>value = [0, 4]<br/>class = Default>, fillcolor="#399de5"] ;
540 -> 541 ;
542 [label=<gini = 0.0<br/>samples = 2<br/>value = [4, 0]<br/>class = No Default>, fillcolor="#e58139"] ;
540 -> 542 ;
543 [label=<uti_50plus_pct &le; 0.483<br/>gini = 0.5<br/>samples = 2<br/>value = [1, 1]<br/>class = No Default>, fillcolor="#ffffff"] ;
439 -> 543 ;
544 [label=<gini = 0.0<br/>samples = 1<br/>value = [1, 0]<br/>class = No Default>, fillcolor="#e58139"] ;
543 -> 544 ;
545 [label=<gini = 0.0<br/>samples = 1<br/>value = [0, 1]<br/>class = Default>, fillcolor="#399de5"] ;
543 -> 545 ;
546 [label=<gini = 0.0<br/>samples = 4<br/>value = [0, 5]<br/>class = Default>, fillcolor="#399de5"] ;
438 -> 546 ;
547 [label=<tot_credit_debt &le; 133890.945<br/>gini = 0.057<br/>samples = 1237<br/>value = [1921, 58]<br/>class = No Default>, fillcolor="#e6853f"] ;
409 -> 547 ;
548 [label=<card_open_36_month_num &le; 0.5<br/>gini = 0.056<br/>samples = 1233<br/>value = [1918, 57]<br/>class = No Default>, fillcolor="#e6853f"] ;
547 -> 548 ;
549 [label=<avg_card_debt &le; 7935.18<br/>gini = 0.051<br/>samples = 1061<br/>value = [1661, 45]<br/>class = No Default>, fillcolor="#e6843e"] ;
548 -> 549 ;
550 [label=<uti_card &le; 0.495<br/>gini = 0.444<br/>samples = 2<br/>value = [1, 2]<br/>class = Default>, fillcolor="#9ccef2"] ;
549 -> 550 ;
551 [label=<gini = 0.0<br/>samples = 1<br/>value = [1, 0]<br/>class = No Default>, fillcolor="#e58139"] ;
550 -> 551 ;
552 [label=<gini = 0.0<br/>samples = 1<br/>value = [0, 2]<br/>class = Default>, fillcolor="#399de5"] ;
550 -> 552 ;
553 [label=<non_mtg_acc_past_due_12_months_num &le; 0.5<br/>gini = 0.049<br/>samples = 1059<br/>value = [1660, 43]<br/>class = No Default>, fillcolor="#e6843e"] ;
549 -> 553 ;
554 [label=<credit_age &le; 326.5<br/>gini = 0.043<br/>samples = 1011<br/>value = [1598, 36]<br/>class = No Default>, fillcolor="#e6843d"] ;
553 -> 554 ;
555 [label=<avg_card_debt &le; 59955.97<br/>gini = 0.04<br/>samples = 998<br/>value = [1572, 33]<br/>class = No Default>, fillcolor="#e6843d"] ;
554 -> 555 ;
556 [label=<uti_50plus_pct &le; 0.53<br/>gini = 0.037<br/>samples = 993<br/>value = [1569.0, 30.0]<br/>class = No Default>, fillcolor="#e5833d"] ;
555 -> 556 ;
557 [label=<uti_50plus_pct &le; 0.53<br/>gini = 0.048<br/>samples = 639<br/>value = [1000, 25]<br/>class = No Default>, fillcolor="#e6843e"] ;
556 -> 557 ;
558 [label=<uti_card &le; 0.453<br/>gini = 0.044<br/>samples = 638<br/>value = [1000, 23]<br/>class = No Default>, fillcolor="#e6843e"] ;
557 -> 558 ;
559 [label=<card_inq_24_month_num &le; 0.5<br/>gini = 0.157<br/>samples = 23<br/>value = [32, 3]<br/>class = No Default>, fillcolor="#e78d4c"] ;
558 -> 559 ;
560 [label=<uti_card_50plus_pct &le; 0.464<br/>gini = 0.42<br/>samples = 7<br/>value = [7, 3]<br/>class = No Default>, fillcolor="#f0b78e"] ;
559 -> 560 ;
561 [label=<inq_12_month_num &le; 0.5<br/>gini = 0.444<br/>samples = 2<br/>value = [1, 2]<br/>class = Default>, fillcolor="#9ccef2"] ;
560 -> 561 ;
562 [label=<gini = 0.0<br/>samples = 1<br/>value = [1, 0]<br/>class = No Default>, fillcolor="#e58139"] ;
561 -> 562 ;
563 [label=<gini = 0.0<br/>samples = 1<br/>value = [0, 2]<br/>class = Default>, fillcolor="#399de5"] ;
561 -> 563 ;
564 [label=<avg_card_debt &le; 10544.54<br/>gini = 0.245<br/>samples = 5<br/>value = [6, 1]<br/>class = No Default>, fillcolor="#e9965a"] ;
560 -> 564 ;
565 [label=<gini = 0.0<br/>samples = 1<br/>value = [0, 1]<br/>class = Default>, fillcolor="#399de5"] ;
564 -> 565 ;
566 [label=<gini = 0.0<br/>samples = 4<br/>value = [6, 0]<br/>class = No Default>, fillcolor="#e58139"] ;
564 -> 566 ;
567 [label=<gini = 0.0<br/>samples = 16<br/>value = [25, 0]<br/>class = No Default>, fillcolor="#e58139"] ;
559 -> 567 ;
568 [label=<uti_50plus_pct &le; 0.508<br/>gini = 0.04<br/>samples = 615<br/>value = [968, 20]<br/>class = No Default>, fillcolor="#e6843d"] ;
558 -> 568 ;
569 [label=<card_inq_24_month_num &le; 11.5<br/>gini = 0.027<br/>samples = 498<br/>value = [802, 11]<br/>class = No Default>, fillcolor="#e5833c"] ;
568 -> 569 ;
570 [label=<uti_card &le; 0.472<br/>gini = 0.024<br/>samples = 496<br/>value = [800, 10]<br/>class = No Default>, fillcolor="#e5833b"] ;
569 -> 570 ;
571 [label=<uti_max_credit_line &le; 0.407<br/>gini = 0.044<br/>samples = 114<br/>value = [174, 4]<br/>class = No Default>, fillcolor="#e6843e"] ;
570 -> 571 ;
572 [label=<inq_12_month_num &le; 2.5<br/>gini = 0.191<br/>samples = 16<br/>value = [25, 3]<br/>class = No Default>, fillcolor="#e89051"] ;
571 -> 572 ;
573 [label=<tot_credit_debt &le; 106411.375<br/>gini = 0.077<br/>samples = 14<br/>value = [24, 1]<br/>class = No Default>, fillcolor="#e68641"] ;
572 -> 573 ;
574 [label=<gini = 0.0<br/>samples = 12<br/>value = [23, 0]<br/>class = No Default>, fillcolor="#e58139"] ;
573 -> 574 ;
575 [label=<uti_50plus_pct &le; 0.431<br/>gini = 0.5<br/>samples = 2<br/>value = [1, 1]<br/>class = No Default>, fillcolor="#ffffff"] ;
573 -> 575 ;
576 [label=<gini = 0.0<br/>samples = 1<br/>value = [0, 1]<br/>class = Default>, fillcolor="#399de5"] ;
575 -> 576 ;
577 [label=<gini = 0.0<br/>samples = 1<br/>value = [1, 0]<br/>class = No Default>, fillcolor="#e58139"] ;
575 -> 577 ;
578 [label=<credit_age &le; 242.5<br/>gini = 0.444<br/>samples = 2<br/>value = [1, 2]<br/>class = Default>, fillcolor="#9ccef2"] ;
572 -> 578 ;
579 [label=<gini = 0.0<br/>samples = 1<br/>value = [0, 2]<br/>class = Default>, fillcolor="#399de5"] ;
578 -> 579 ;
580 [label=<gini = 0.0<br/>samples = 1<br/>value = [1, 0]<br/>class = No Default>, fillcolor="#e58139"] ;
578 -> 580 ;
581 [label=<States_SC &le; 0.5<br/>gini = 0.013<br/>samples = 98<br/>value = [149, 1]<br/>class = No Default>, fillcolor="#e5823a"] ;
571 -> 581 ;
582 [label=<gini = 0.0<br/>samples = 83<br/>value = [133, 0]<br/>class = No Default>, fillcolor="#e58139"] ;
581 -> 582 ;
583 [label=<inq_12_month_num &le; 1.5<br/>gini = 0.111<br/>samples = 15<br/>value = [16, 1]<br/>class = No Default>, fillcolor="#e78945"] ;
581 -> 583 ;
584 [label=<gini = 0.0<br/>samples = 9<br/>value = [10, 0]<br/>class = No Default>, fillcolor="#e58139"] ;
583 -> 584 ;
585 [label=<rep_income &le; 60000.0<br/>gini = 0.245<br/>samples = 6<br/>value = [6, 1]<br/>class = No Default>, fillcolor="#e9965a"] ;
583 -> 585 ;
586 [label=<gini = 0.0<br/>samples = 1<br/>value = [0, 1]<br/>class = Default>, fillcolor="#399de5"] ;
585 -> 586 ;
587 [label=<gini = 0.0<br/>samples = 5<br/>value = [6, 0]<br/>class = No Default>, fillcolor="#e58139"] ;
585 -> 587 ;
588 [label=<uti_card &le; 0.521<br/>gini = 0.019<br/>samples = 382<br/>value = [626, 6]<br/>class = No Default>, fillcolor="#e5823b"] ;
570 -> 588 ;
589 [label=<inq_12_month_num &le; 1.5<br/>gini = 0.009<br/>samples = 258<br/>value = [423.0, 2.0]<br/>class = No Default>, fillcolor="#e5823a"] ;
588 -> 589 ;
590 [label=<gini = 0.0<br/>samples = 136<br/>value = [228, 0]<br/>class = No Default>, fillcolor="#e58139"] ;
589 -> 590 ;
591 [label=<uti_card_50plus_pct &le; 0.488<br/>gini = 0.02<br/>samples = 122<br/>value = [195.0, 2.0]<br/>class = No Default>, fillcolor="#e5823b"] ;
589 -> 591 ;
592 [label=<gini = 0.0<br/>samples = 71<br/>value = [125, 0]<br/>class = No Default>, fillcolor="#e58139"] ;
591 -> 592 ;
593 [label=<uti_card_50plus_pct &le; 0.489<br/>gini = 0.054<br/>samples = 51<br/>value = [70, 2]<br/>class = No Default>, fillcolor="#e6853f"] ;
591 -> 593 ;
594 [label=<gini = 0.0<br/>samples = 1<br/>value = [0, 1]<br/>class = Default>, fillcolor="#399de5"] ;
593 -> 594 ;
595 [label=<avg_card_debt &le; 17335.63<br/>gini = 0.028<br/>samples = 50<br/>value = [70, 1]<br/>class = No Default>, fillcolor="#e5833c"] ;
593 -> 595 ;
596 [label=<gini = 0.0<br/>samples = 47<br/>value = [67, 0]<br/>class = No Default>, fillcolor="#e58139"] ;
595 -> 596 ;
597 [label=<card_age &le; 223.5<br/>gini = 0.375<br/>samples = 3<br/>value = [3, 1]<br/>class = No Default>, fillcolor="#eeab7b"] ;
595 -> 597 ;
598 [label=<gini = 0.0<br/>samples = 2<br/>value = [3, 0]<br/>class = No Default>, fillcolor="#e58139"] ;
597 -> 598 ;
599 [label=<gini = 0.0<br/>samples = 1<br/>value = [0, 1]<br/>class = Default>, fillcolor="#399de5"] ;
597 -> 599 ;
600 [label=<rep_income &le; 85500.0<br/>gini = 0.038<br/>samples = 124<br/>value = [203, 4]<br/>class = No Default>, fillcolor="#e6833d"] ;
588 -> 600 ;
601 [label=<card_inq_24_month_num &le; 0.5<br/>gini = 0.045<br/>samples = 101<br/>value = [169, 4]<br/>class = No Default>, fillcolor="#e6843e"] ;
600 -> 601 ;
602 [label=<uti_card_50plus_pct &le; 0.457<br/>gini = 0.149<br/>samples = 22<br/>value = [34, 3]<br/>class = No Default>, fillcolor="#e78c4a"] ;
601 -> 602 ;
603 [label=<gini = 0.0<br/>samples = 1<br/>value = [0, 1]<br/>class = Default>, fillcolor="#399de5"] ;
602 -> 603 ;
604 [label=<avg_card_debt &le; 15264.045<br/>gini = 0.105<br/>samples = 21<br/>value = [34, 2]<br/>class = No Default>, fillcolor="#e78845"] ;
602 -> 604 ;
605 [label=<gini = 0.0<br/>samples = 16<br/>value = [30, 0]<br/>class = No Default>, fillcolor="#e58139"] ;
604 -> 605 ;
606 [label=<credit_age &le; 295.0<br/>gini = 0.444<br/>samples = 5<br/>value = [4, 2]<br/>class = No Default>, fillcolor="#f2c09c"] ;
604 -> 606 ;
607 [label=<gini = 0.0<br/>samples = 3<br/>value = [4, 0]<br/>class = No Default>, fillcolor="#e58139"] ;
606 -> 607 ;
608 [label=<gini = 0.0<br/>samples = 2<br/>value = [0, 2]<br/>class = Default>, fillcolor="#399de5"] ;
606 -> 608 ;
609 [label=<uti_50plus_pct &le; 0.408<br/>gini = 0.015<br/>samples = 79<br/>value = [135, 1]<br/>class = No Default>, fillcolor="#e5823a"] ;
601 -> 609 ;
610 [label=<inq_12_month_num &le; 1.5<br/>gini = 0.153<br/>samples = 7<br/>value = [11, 1]<br/>class = No Default>, fillcolor="#e78c4b"] ;
609 -> 610 ;
611 [label=<credit_good_age &le; 116.0<br/>gini = 0.32<br/>samples = 3<br/>value = [4, 1]<br/>class = No Default>, fillcolor="#eca06a"] ;
610 -> 611 ;
612 [label=<gini = 0.0<br/>samples = 1<br/>value = [0, 1]<br/>class = Default>, fillcolor="#399de5"] ;
611 -> 612 ;
613 [label=<gini = 0.0<br/>samples = 2<br/>value = [4, 0]<br/>class = No Default>, fillcolor="#e58139"] ;
611 -> 613 ;
614 [label=<gini = 0.0<br/>samples = 4<br/>value = [7, 0]<br/>class = No Default>, fillcolor="#e58139"] ;
610 -> 614 ;
615 [label=<gini = 0.0<br/>samples = 72<br/>value = [124, 0]<br/>class = No Default>, fillcolor="#e58139"] ;
609 -> 615 ;
616 [label=<gini = 0.0<br/>samples = 23<br/>value = [34, 0]<br/>class = No Default>, fillcolor="#e58139"] ;
600 -> 616 ;
617 [label=<credit_good_age &le; 144.5<br/>gini = 0.444<br/>samples = 2<br/>value = [2, 1]<br/>class = No Default>, fillcolor="#f2c09c"] ;
569 -> 617 ;
618 [label=<gini = 0.0<br/>samples = 1<br/>value = [2, 0]<br/>class = No Default>, fillcolor="#e58139"] ;
617 -> 618 ;
619 [label=<gini = 0.0<br/>samples = 1<br/>value = [0, 1]<br/>class = Default>, fillcolor="#399de5"] ;
617 -> 619 ;
620 [label=<credit_good_age &le; 152.0<br/>gini = 0.098<br/>samples = 117<br/>value = [166, 9]<br/>class = No Default>, fillcolor="#e68844"] ;
568 -> 620 ;
621 [label=<avg_card_debt &le; 8550.36<br/>gini = 0.061<br/>samples = 89<br/>value = [124, 4]<br/>class = No Default>, fillcolor="#e6853f"] ;
620 -> 621 ;
622 [label=<gini = 0.0<br/>samples = 1<br/>value = [0, 1]<br/>class = Default>, fillcolor="#399de5"] ;
621 -> 622 ;
623 [label=<avg_card_debt &le; 16260.66<br/>gini = 0.046<br/>samples = 88<br/>value = [124, 3]<br/>class = No Default>, fillcolor="#e6843e"] ;
621 -> 623 ;
624 [label=<uti_50plus_pct &le; 0.512<br/>gini = 0.018<br/>samples = 74<br/>value = [107, 1]<br/>class = No Default>, fillcolor="#e5823b"] ;
623 -> 624 ;
625 [label=<rep_income &le; 105500.0<br/>gini = 0.142<br/>samples = 11<br/>value = [12, 1]<br/>class = No Default>, fillcolor="#e78c49"] ;
624 -> 625 ;
626 [label=<gini = 0.0<br/>samples = 10<br/>value = [12, 0]<br/>class = No Default>, fillcolor="#e58139"] ;
625 -> 626 ;
627 [label=<gini = 0.0<br/>samples = 1<br/>value = [0, 1]<br/>class = Default>, fillcolor="#399de5"] ;
625 -> 627 ;
628 [label=<gini = 0.0<br/>samples = 63<br/>value = [95, 0]<br/>class = No Default>, fillcolor="#e58139"] ;
624 -> 628 ;
629 [label=<tot_credit_debt &le; 98467.012<br/>gini = 0.188<br/>samples = 14<br/>value = [17, 2]<br/>class = No Default>, fillcolor="#e89050"] ;
623 -> 629 ;
630 [label=<gini = 0.0<br/>samples = 1<br/>value = [0, 1]<br/>class = Default>, fillcolor="#399de5"] ;
629 -> 630 ;
631 [label=<uti_50plus_pct &le; 0.509<br/>gini = 0.105<br/>samples = 13<br/>value = [17, 1]<br/>class = No Default>, fillcolor="#e78845"] ;
629 -> 631 ;
632 [label=<gini = 0.0<br/>samples = 1<br/>value = [0, 1]<br/>class = Default>, fillcolor="#399de5"] ;
631 -> 632 ;
633 [label=<gini = 0.0<br/>samples = 12<br/>value = [17, 0]<br/>class = No Default>, fillcolor="#e58139"] ;
631 -> 633 ;
634 [label=<credit_age &le; 251.5<br/>gini = 0.19<br/>samples = 28<br/>value = [42, 5]<br/>class = No Default>, fillcolor="#e89051"] ;
620 -> 634 ;
635 [label=<gini = 0.0<br/>samples = 1<br/>value = [0, 1]<br/>class = Default>, fillcolor="#399de5"] ;
634 -> 635 ;
636 [label=<uti_card_50plus_pct &le; 0.517<br/>gini = 0.159<br/>samples = 27<br/>value = [42, 4]<br/>class = No Default>, fillcolor="#e78d4c"] ;
634 -> 636 ;
637 [label=<uti_card_50plus_pct &le; 0.468<br/>gini = 0.095<br/>samples = 23<br/>value = [38, 2]<br/>class = No Default>, fillcolor="#e68843"] ;
636 -> 637 ;
638 [label=<card_inq_24_month_num &le; 3.5<br/>gini = 0.375<br/>samples = 3<br/>value = [3, 1]<br/>class = No Default>, fillcolor="#eeab7b"] ;
637 -> 638 ;
639 [label=<gini = 0.0<br/>samples = 1<br/>value = [0, 1]<br/>class = Default>, fillcolor="#399de5"] ;
638 -> 639 ;
640 [label=<gini = 0.0<br/>samples = 2<br/>value = [3, 0]<br/>class = No Default>, fillcolor="#e58139"] ;
638 -> 640 ;
641 [label=<uti_card &le; 0.537<br/>gini = 0.054<br/>samples = 20<br/>value = [35, 1]<br/>class = No Default>, fillcolor="#e6853f"] ;
637 -> 641 ;
642 [label=<gini = 0.0<br/>samples = 17<br/>value = [30, 0]<br/>class = No Default>, fillcolor="#e58139"] ;
641 -> 642 ;
643 [label=<uti_card_50plus_pct &le; 0.496<br/>gini = 0.278<br/>samples = 3<br/>value = [5, 1]<br/>class = No Default>, fillcolor="#ea9a61"] ;
641 -> 643 ;
644 [label=<gini = 0.0<br/>samples = 1<br/>value = [0, 1]<br/>class = Default>, fillcolor="#399de5"] ;
643 -> 644 ;
645 [label=<gini = 0.0<br/>samples = 2<br/>value = [5, 0]<br/>class = No Default>, fillcolor="#e58139"] ;
643 -> 645 ;
646 [label=<rep_income &le; 85500.0<br/>gini = 0.444<br/>samples = 4<br/>value = [4, 2]<br/>class = No Default>, fillcolor="#f2c09c"] ;
636 -> 646 ;
647 [label=<gini = 0.0<br/>samples = 2<br/>value = [3, 0]<br/>class = No Default>, fillcolor="#e58139"] ;
646 -> 647 ;
648 [label=<inq_12_month_num &le; 1.5<br/>gini = 0.444<br/>samples = 2<br/>value = [1, 2]<br/>class = Default>, fillcolor="#9ccef2"] ;
646 -> 648 ;
649 [label=<gini = 0.0<br/>samples = 1<br/>value = [1, 0]<br/>class = No Default>, fillcolor="#e58139"] ;
648 -> 649 ;
650 [label=<gini = 0.0<br/>samples = 1<br/>value = [0, 2]<br/>class = Default>, fillcolor="#399de5"] ;
648 -> 650 ;
651 [label=<gini = 0.0<br/>samples = 1<br/>value = [0, 2]<br/>class = Default>, fillcolor="#399de5"] ;
557 -> 651 ;
652 [label=<avg_card_debt &le; 10003.52<br/>gini = 0.017<br/>samples = 354<br/>value = [569, 5]<br/>class = No Default>, fillcolor="#e5823b"] ;
556 -> 652 ;
653 [label=<inq_12_month_num &le; 5.5<br/>gini = 0.075<br/>samples = 28<br/>value = [49, 2]<br/>class = No Default>, fillcolor="#e68641"] ;
652 -> 653 ;
654 [label=<credit_age &le; 308.5<br/>gini = 0.039<br/>samples = 27<br/>value = [49, 1]<br/>class = No Default>, fillcolor="#e6843d"] ;
653 -> 654 ;
655 [label=<gini = 0.0<br/>samples = 25<br/>value = [48, 0]<br/>class = No Default>, fillcolor="#e58139"] ;
654 -> 655 ;
656 [label=<States_NC &le; 0.5<br/>gini = 0.5<br/>samples = 2<br/>value = [1, 1]<br/>class = No Default>, fillcolor="#ffffff"] ;
654 -> 656 ;
657 [label=<gini = 0.0<br/>samples = 1<br/>value = [1, 0]<br/>class = No Default>, fillcolor="#e58139"] ;
656 -> 657 ;
658 [label=<gini = 0.0<br/>samples = 1<br/>value = [0, 1]<br/>class = Default>, fillcolor="#399de5"] ;
656 -> 658 ;
659 [label=<gini = 0.0<br/>samples = 1<br/>value = [0, 1]<br/>class = Default>, fillcolor="#399de5"] ;
653 -> 659 ;
660 [label=<tot_credit_debt &le; 132198.883<br/>gini = 0.011<br/>samples = 326<br/>value = [520, 3]<br/>class = No Default>, fillcolor="#e5823a"] ;
652 -> 660 ;
661 [label=<uti_card_50plus_pct &le; 0.511<br/>gini = 0.008<br/>samples = 321<br/>value = [514, 2]<br/>class = No Default>, fillcolor="#e5813a"] ;
660 -> 661 ;
662 [label=<gini = 0.0<br/>samples = 249<br/>value = [408, 0]<br/>class = No Default>, fillcolor="#e58139"] ;
661 -> 662 ;
663 [label=<credit_age &le; 258.5<br/>gini = 0.036<br/>samples = 72<br/>value = [106, 2]<br/>class = No Default>, fillcolor="#e5833d"] ;
661 -> 663 ;
664 [label=<uti_card_50plus_pct &le; 0.511<br/>gini = 0.095<br/>samples = 27<br/>value = [38, 2]<br/>class = No Default>, fillcolor="#e68843"] ;
663 -> 664 ;
665 [label=<gini = 0.0<br/>samples = 1<br/>value = [0, 1]<br/>class = Default>, fillcolor="#399de5"] ;
664 -> 665 ;
666 [label=<uti_50plus_pct &le; 0.575<br/>gini = 0.05<br/>samples = 26<br/>value = [38, 1]<br/>class = No Default>, fillcolor="#e6843e"] ;
664 -> 666 ;
667 [label=<gini = 0.0<br/>samples = 16<br/>value = [25, 0]<br/>class = No Default>, fillcolor="#e58139"] ;
666 -> 667 ;
668 [label=<credit_good_age &le; 144.5<br/>gini = 0.133<br/>samples = 10<br/>value = [13, 1]<br/>class = No Default>, fillcolor="#e78b48"] ;
666 -> 668 ;
669 [label=<gini = 0.0<br/>samples = 8<br/>value = [11, 0]<br/>class = No Default>, fillcolor="#e58139"] ;
668 -> 669 ;
670 [label=<credit_good_age &le; 146.0<br/>gini = 0.444<br/>samples = 2<br/>value = [2, 1]<br/>class = No Default>, fillcolor="#f2c09c"] ;
668 -> 670 ;
671 [label=<gini = 0.0<br/>samples = 1<br/>value = [0, 1]<br/>class = Default>, fillcolor="#399de5"] ;
670 -> 671 ;
672 [label=<gini = 0.0<br/>samples = 1<br/>value = [2, 0]<br/>class = No Default>, fillcolor="#e58139"] ;
670 -> 672 ;
673 [label=<gini = 0.0<br/>samples = 45<br/>value = [68, 0]<br/>class = No Default>, fillcolor="#e58139"] ;
663 -> 673 ;
674 [label=<States_SC &le; 0.5<br/>gini = 0.245<br/>samples = 5<br/>value = [6, 1]<br/>class = No Default>, fillcolor="#e9965a"] ;
660 -> 674 ;
675 [label=<gini = 0.0<br/>samples = 4<br/>value = [6, 0]<br/>class = No Default>, fillcolor="#e58139"] ;
674 -> 675 ;
676 [label=<gini = 0.0<br/>samples = 1<br/>value = [0, 1]<br/>class = Default>, fillcolor="#399de5"] ;
674 -> 676 ;
677 [label=<credit_good_age &le; 132.0<br/>gini = 0.5<br/>samples = 5<br/>value = [3, 3]<br/>class = No Default>, fillcolor="#ffffff"] ;
555 -> 677 ;
678 [label=<gini = 0.0<br/>samples = 2<br/>value = [2, 0]<br/>class = No Default>, fillcolor="#e58139"] ;
677 -> 678 ;
679 [label=<credit_age &le; 301.0<br/>gini = 0.375<br/>samples = 3<br/>value = [1, 3]<br/>class = Default>, fillcolor="#7bbeee"] ;
677 -> 679 ;
680 [label=<gini = 0.0<br/>samples = 2<br/>value = [0, 3]<br/>class = Default>, fillcolor="#399de5"] ;
679 -> 680 ;
681 [label=<gini = 0.0<br/>samples = 1<br/>value = [1, 0]<br/>class = No Default>, fillcolor="#e58139"] ;
679 -> 681 ;
682 [label=<uti_max_credit_line &le; 0.429<br/>gini = 0.185<br/>samples = 13<br/>value = [26, 3]<br/>class = No Default>, fillcolor="#e89050"] ;
554 -> 682 ;
683 [label=<inq_12_month_num &le; 2.0<br/>gini = 0.444<br/>samples = 2<br/>value = [1, 2]<br/>class = Default>, fillcolor="#9ccef2"] ;
682 -> 683 ;
684 [label=<gini = 0.0<br/>samples = 1<br/>value = [1, 0]<br/>class = No Default>, fillcolor="#e58139"] ;
683 -> 684 ;
685 [label=<gini = 0.0<br/>samples = 1<br/>value = [0, 2]<br/>class = Default>, fillcolor="#399de5"] ;
683 -> 685 ;
686 [label=<uti_card &le; 0.534<br/>gini = 0.074<br/>samples = 11<br/>value = [25, 1]<br/>class = No Default>, fillcolor="#e68641"] ;
682 -> 686 ;
687 [label=<gini = 0.0<br/>samples = 10<br/>value = [25, 0]<br/>class = No Default>, fillcolor="#e58139"] ;
686 -> 687 ;
688 [label=<gini = 0.0<br/>samples = 1<br/>value = [0, 1]<br/>class = Default>, fillcolor="#399de5"] ;
686 -> 688 ;
689 [label=<avg_card_debt &le; 8685.66<br/>gini = 0.182<br/>samples = 48<br/>value = [62, 7]<br/>class = No Default>, fillcolor="#e88f4f"] ;
553 -> 689 ;
690 [label=<gini = 0.0<br/>samples = 1<br/>value = [0, 1]<br/>class = Default>, fillcolor="#399de5"] ;
689 -> 690 ;
691 [label=<card_age &le; 190.5<br/>gini = 0.161<br/>samples = 47<br/>value = [62, 6]<br/>class = No Default>, fillcolor="#e88d4c"] ;
689 -> 691 ;
692 [label=<uti_card_50plus_pct &le; 0.483<br/>gini = 0.375<br/>samples = 3<br/>value = [1, 3]<br/>class = Default>, fillcolor="#7bbeee"] ;
691 -> 692 ;
693 [label=<gini = 0.0<br/>samples = 2<br/>value = [0, 3]<br/>class = Default>, fillcolor="#399de5"] ;
692 -> 693 ;
694 [label=<gini = 0.0<br/>samples = 1<br/>value = [1, 0]<br/>class = No Default>, fillcolor="#e58139"] ;
692 -> 694 ;
695 [label=<credit_good_age &le; 84.0<br/>gini = 0.089<br/>samples = 44<br/>value = [61, 3]<br/>class = No Default>, fillcolor="#e68743"] ;
691 -> 695 ;
696 [label=<avg_card_debt &le; 11061.56<br/>gini = 0.5<br/>samples = 2<br/>value = [1, 1]<br/>class = No Default>, fillcolor="#ffffff"] ;
695 -> 696 ;
697 [label=<gini = 0.0<br/>samples = 1<br/>value = [0, 1]<br/>class = Default>, fillcolor="#399de5"] ;
696 -> 697 ;
698 [label=<gini = 0.0<br/>samples = 1<br/>value = [1, 0]<br/>class = No Default>, fillcolor="#e58139"] ;
696 -> 698 ;
699 [label=<uti_50plus_pct &le; 0.418<br/>gini = 0.062<br/>samples = 42<br/>value = [60, 2]<br/>class = No Default>, fillcolor="#e68540"] ;
695 -> 699 ;
700 [label=<inq_12_month_num &le; 2.5<br/>gini = 0.444<br/>samples = 3<br/>value = [2, 1]<br/>class = No Default>, fillcolor="#f2c09c"] ;
699 -> 700 ;
701 [label=<gini = 0.0<br/>samples = 2<br/>value = [2, 0]<br/>class = No Default>, fillcolor="#e58139"] ;
700 -> 701 ;
702 [label=<gini = 0.0<br/>samples = 1<br/>value = [0, 1]<br/>class = Default>, fillcolor="#399de5"] ;
700 -> 702 ;
703 [label=<uti_card_50plus_pct &le; 0.515<br/>gini = 0.033<br/>samples = 39<br/>value = [58, 1]<br/>class = No Default>, fillcolor="#e5833c"] ;
699 -> 703 ;
704 [label=<gini = 0.0<br/>samples = 35<br/>value = [53, 0]<br/>class = No Default>, fillcolor="#e58139"] ;
703 -> 704 ;
705 [label=<credit_age &le; 299.0<br/>gini = 0.278<br/>samples = 4<br/>value = [5, 1]<br/>class = No Default>, fillcolor="#ea9a61"] ;
703 -> 705 ;
706 [label=<gini = 0.0<br/>samples = 3<br/>value = [5, 0]<br/>class = No Default>, fillcolor="#e58139"] ;
705 -> 706 ;
707 [label=<gini = 0.0<br/>samples = 1<br/>value = [0, 1]<br/>class = Default>, fillcolor="#399de5"] ;
705 -> 707 ;
708 [label=<avg_card_debt &le; 19303.775<br/>gini = 0.085<br/>samples = 172<br/>value = [257, 12]<br/>class = No Default>, fillcolor="#e68742"] ;
548 -> 708 ;
709 [label=<avg_card_debt &le; 11558.44<br/>gini = 0.045<br/>samples = 169<br/>value = [256, 6]<br/>class = No Default>, fillcolor="#e6843e"] ;
708 -> 709 ;
710 [label=<uti_50plus_pct &le; 0.364<br/>gini = 0.134<br/>samples = 50<br/>value = [64, 5]<br/>class = No Default>, fillcolor="#e78b48"] ;
709 -> 710 ;
711 [label=<gini = 0.0<br/>samples = 1<br/>value = [0, 1]<br/>class = Default>, fillcolor="#399de5"] ;
710 -> 711 ;
712 [label=<uti_card &le; 0.517<br/>gini = 0.111<br/>samples = 49<br/>value = [64, 4]<br/>class = No Default>, fillcolor="#e78945"] ;
710 -> 712 ;
713 [label=<States_FL &le; 0.5<br/>gini = 0.043<br/>samples = 31<br/>value = [44, 1]<br/>class = No Default>, fillcolor="#e6843d"] ;
712 -> 713 ;
714 [label=<gini = 0.0<br/>samples = 25<br/>value = [36, 0]<br/>class = No Default>, fillcolor="#e58139"] ;
713 -> 714 ;
715 [label=<card_age &le; 246.0<br/>gini = 0.198<br/>samples = 6<br/>value = [8, 1]<br/>class = No Default>, fillcolor="#e89152"] ;
713 -> 715 ;
716 [label=<uti_max_credit_line &le; 0.577<br/>gini = 0.5<br/>samples = 2<br/>value = [1, 1]<br/>class = No Default>, fillcolor="#ffffff"] ;
715 -> 716 ;
717 [label=<gini = 0.0<br/>samples = 1<br/>value = [0, 1]<br/>class = Default>, fillcolor="#399de5"] ;
716 -> 717 ;
718 [label=<gini = 0.0<br/>samples = 1<br/>value = [1, 0]<br/>class = No Default>, fillcolor="#e58139"] ;
716 -> 718 ;
719 [label=<gini = 0.0<br/>samples = 4<br/>value = [7, 0]<br/>class = No Default>, fillcolor="#e58139"] ;
715 -> 719 ;
720 [label=<uti_50plus_pct &le; 0.512<br/>gini = 0.227<br/>samples = 18<br/>value = [20, 3]<br/>class = No Default>, fillcolor="#e99457"] ;
712 -> 720 ;
721 [label=<tot_credit_debt &le; 70640.639<br/>gini = 0.133<br/>samples = 9<br/>value = [13, 1]<br/>class = No Default>, fillcolor="#e78b48"] ;
720 -> 721 ;
722 [label=<gini = 0.0<br/>samples = 1<br/>value = [0, 1]<br/>class = Default>, fillcolor="#399de5"] ;
721 -> 722 ;
723 [label=<gini = 0.0<br/>samples = 8<br/>value = [13, 0]<br/>class = No Default>, fillcolor="#e58139"] ;
721 -> 723 ;
724 [label=<avg_card_debt &le; 8944.15<br/>gini = 0.346<br/>samples = 9<br/>value = [7, 2]<br/>class = No Default>, fillcolor="#eca572"] ;
720 -> 724 ;
725 [label=<gini = 0.0<br/>samples = 3<br/>value = [3, 0]<br/>class = No Default>, fillcolor="#e58139"] ;
724 -> 725 ;
726 [label=<tot_credit_debt &le; 64482.326<br/>gini = 0.444<br/>samples = 6<br/>value = [4, 2]<br/>class = No Default>, fillcolor="#f2c09c"] ;
724 -> 726 ;
727 [label=<gini = 0.0<br/>samples = 1<br/>value = [0, 1]<br/>class = Default>, fillcolor="#399de5"] ;
726 -> 727 ;
728 [label=<credit_good_age &le; 136.0<br/>gini = 0.32<br/>samples = 5<br/>value = [4, 1]<br/>class = No Default>, fillcolor="#eca06a"] ;
726 -> 728 ;
729 [label=<gini = 0.0<br/>samples = 4<br/>value = [4, 0]<br/>class = No Default>, fillcolor="#e58139"] ;
728 -> 729 ;
730 [label=<gini = 0.0<br/>samples = 1<br/>value = [0, 1]<br/>class = Default>, fillcolor="#399de5"] ;
728 -> 730 ;
731 [label=<credit_good_age &le; 97.0<br/>gini = 0.01<br/>samples = 119<br/>value = [192, 1]<br/>class = No Default>, fillcolor="#e5823a"] ;
709 -> 731 ;
732 [label=<card_age &le; 240.0<br/>gini = 0.117<br/>samples = 10<br/>value = [15, 1]<br/>class = No Default>, fillcolor="#e78946"] ;
731 -> 732 ;
733 [label=<gini = 0.0<br/>samples = 8<br/>value = [13, 0]<br/>class = No Default>, fillcolor="#e58139"] ;
732 -> 733 ;
734 [label=<uti_card_50plus_pct &le; 0.473<br/>gini = 0.444<br/>samples = 2<br/>value = [2, 1]<br/>class = No Default>, fillcolor="#f2c09c"] ;
732 -> 734 ;
